<?xml version="1.0"?>
<opencv_storage>
<my_svm type_id="opencv-ml-svm">
  <svm_type>NU_SVC</svm_type>
  <kernel><type>LINEAR</type></kernel>
  <nu>8.9999999999999997e-02</nu>
  <term_criteria><epsilon>2.2204460492503131e-16</epsilon>
    <iterations>10000</iterations></term_criteria>
  <var_all>1764</var_all>
  <var_count>1764</var_count>
  <class_count>2</class_count>
  <class_labels type_id="opencv-matrix">
    <rows>1</rows>
    <cols>2</cols>
    <dt>i</dt>
    <data>
      -1 1</data></class_labels>
  <sv_total>1</sv_total>
  <support_vectors>
    <_>
      -1.69951599e-02 1.00758530e-01 6.97210897e-03 -4.60792966e-02
      4.81170751e-02 -1.08156279e-01 5.92228360e-02 4.42713825e-03
      -5.59026301e-02 1.12336382e-01 6.65936470e-02 -1.66636473e-03
      2.43120929e-04 -4.98756729e-02 -3.11057642e-02 1.17515415e-01
      1.13107981e-02 1.12146209e-03 -1.01944506e-02 1.45774573e-01
      1.86594591e-01 1.48667902e-01 3.07110641e-02 -8.45950842e-02
      -2.88611837e-02 2.04359108e-04 1.14366777e-01 1.56173920e-02
      -3.38548757e-02 -2.89965868e-01 -2.55345017e-01 6.27642795e-02
      -5.98835684e-02 1.44802004e-01 7.22096562e-02 -2.34947540e-02
      7.84333572e-02 7.81811923e-02 2.00004447e-02 -3.74197587e-02
      -3.50173935e-03 5.28002828e-02 1.27660900e-01 3.12821493e-02
      7.60102179e-04 7.72294998e-02 6.08994924e-02 9.80292782e-02
      -2.09670410e-01 -1.74176812e-01 2.23168731e-02 -8.16005915e-02
      -6.22078292e-02 6.32333532e-02 2.14266460e-02 -6.70535341e-02
      -3.34702492e-01 -1.39998615e-01 7.23459423e-02 -5.20600751e-02
      1.47167474e-01 8.86670575e-02 -1.15608191e-02 -1.06580168e-01
      -3.95411402e-02 1.62461940e-02 -7.21482262e-02 -1.30988374e-01
      -1.45392880e-01 -1.13295794e-01 -8.35298449e-02 -4.32344079e-02
      6.39282763e-02 4.56889570e-02 1.14340261e-01 -1.62470013e-01
      -7.36805201e-02 1.60440743e-01 -5.84494621e-02 -5.49733266e-02
      6.31391108e-02 1.64698780e-01 4.27789800e-02 1.42618462e-01
      2.26712957e-01 -1.82989672e-01 -7.02929273e-02 1.49100065e-01
      9.41522866e-02 1.82509109e-01 -7.27729201e-02 -6.83159754e-02
      -3.08613330e-02 -1.54916793e-01 -5.44961467e-02 -3.39330845e-02
      -8.44405219e-02 -7.23176003e-02 -1.17028859e-02 -1.99928042e-02
      -6.10165931e-02 -5.44890426e-02 3.20414919e-03 -2.38003477e-01
      -2.07651064e-01 -1.26863614e-01 4.35727555e-03 -7.69125018e-03
      1.62508667e-01 4.11425419e-02 1.26159251e-01 2.01585487e-01
      -2.54075885e-01 -6.82826638e-02 1.43594816e-01 8.20697248e-02
      1.51123092e-01 1.00232795e-01 1.25078067e-01 2.16984730e-02
      9.17119235e-02 1.68547034e-01 -1.77486315e-01 -1.43171577e-02
      1.19442835e-01 9.61182192e-02 8.24328233e-03 -5.32334149e-02
      -1.01346523e-01 -1.16691855e-03 -3.02059293e-01 -1.70078546e-01
      -5.19322343e-02 3.11914589e-02 2.97481334e-03 -4.96819951e-02
      1.43221796e-01 7.80228451e-02 -1.79383950e-03 -1.58226863e-01
      -7.38329142e-02 -9.38918516e-02 -3.16275433e-02 -1.71012744e-01
      1.02944389e-01 1.30474061e-01 7.09255401e-04 5.09983189e-02
      1.76649895e-02 -3.12915385e-01 -6.58554211e-03 1.39333501e-01
      9.95283872e-02 -1.69362854e-02 2.63800891e-03 1.58799618e-01
      1.84334204e-01 -7.27344975e-02 -7.70919621e-02 -1.47491634e-01
      1.74253434e-01 3.13845985e-02 -1.17076762e-01 8.18795860e-02
      -6.12294627e-03 -1.08220339e-01 -2.88910687e-01 -1.58220425e-01
      -6.31173328e-02 4.30117268e-03 -2.02628091e-01 -8.05454031e-02
      1.38512941e-03 7.44061023e-02 -1.12143554e-01 2.59763822e-02
      -2.63333675e-02 -2.37036213e-01 -8.20883289e-02 -1.79559201e-01
      -4.22556624e-02 -4.02497426e-02 1.30022213e-01 1.63390473e-01
      -1.10735603e-01 -1.26825422e-01 -1.67328835e-01 2.11954772e-01
      4.04232927e-02 1.76325701e-02 7.29533806e-02 9.88165736e-02
      1.07495457e-01 -1.13706682e-02 -1.00537978e-01 -2.01365650e-02
      4.70655076e-02 2.42951196e-02 -1.28513291e-01 -5.72921038e-02
      -1.52812176e-03 -2.13597700e-01 -4.38086316e-02 -7.92978033e-02
      -2.56607622e-01 -4.80124131e-02 -2.27158859e-01 8.97448361e-02
      -4.83371727e-02 -1.32043166e-02 -1.50429702e-03 4.27887216e-02
      7.31764827e-03 -2.10040018e-01 -1.31051227e-01 -1.80457398e-01
      3.22215930e-02 2.17629131e-02 4.15064953e-02 3.96369584e-02
      -1.87742636e-02 -6.91161901e-02 -8.53218213e-02 -7.04347808e-03
      5.80132529e-02 2.36798391e-01 -1.06580451e-03 -1.78505376e-01
      -1.03588574e-01 -1.12791695e-01 -1.94810182e-01 -4.89608645e-02
      6.29938468e-02 -9.50346664e-02 1.05097763e-01 -6.03295118e-02
      -5.90391010e-02 -3.85850035e-02 1.77358612e-02 2.70700635e-04
      -1.80608526e-01 -9.92688686e-02 -1.78319350e-01 6.90735355e-02
      -3.60716507e-02 -6.78634793e-02 -6.66564405e-02 -9.16300490e-02
      -3.45731452e-02 6.62281439e-02 -1.11994348e-01 4.19512298e-03
      -1.30240381e-01 1.85395122e-01 1.80034578e-01 1.23972222e-01
      1.45319141e-02 -8.05701986e-02 -1.82732977e-02 2.38651652e-02
      1.26792088e-01 -8.12490378e-03 -4.20868844e-02 -3.28648657e-01
      -2.25337923e-01 -3.43947001e-02 -6.84595034e-02 1.15555979e-01
      6.61492422e-02 -3.11739296e-02 -1.40912412e-02 -2.40611285e-01
      2.27510229e-01 3.57393146e-01 5.00370003e-03 -4.95107621e-02
      7.79852644e-02 9.24611166e-02 2.52563804e-01 1.75564718e-02
      -3.16007406e-01 -1.20550483e-01 -3.68300714e-02 6.64070398e-02
      -1.03068143e-01 -6.66500852e-02 -9.08210129e-02 -6.72427565e-02
      5.07392399e-02 -3.99201829e-03 -1.20269790e-01 5.68145737e-02
      1.69859990e-01 7.94615820e-02 1.84075460e-01 1.25035286e-01
      4.85706925e-02 -9.38201025e-02 -9.05330405e-02 -8.55667740e-02
      -2.59679317e-01 -5.08835278e-02 1.43143773e-01 5.75870611e-02
      1.19999168e-03 -2.75897258e-03 1.56409830e-01 -2.11470246e-01
      -7.05187768e-02 1.57403480e-02 1.20006844e-01 -1.08044399e-02
      7.90418126e-03 3.01035251e-02 2.87157353e-02 -9.14934278e-02
      4.62363921e-02 -1.78066753e-02 -1.05654836e-01 -1.31105855e-01
      -2.68777385e-02 6.79722503e-02 -5.60291708e-02 -5.14633255e-03
      -3.09884511e-02 -4.37675714e-02 9.26381797e-02 -1.07374385e-01
      2.29395218e-02 1.21248528e-01 1.87804382e-02 -7.29067251e-03
      -1.10847200e-03 4.24112380e-02 2.32566978e-04 -1.09788254e-01
      1.02266848e-01 -1.88672334e-01 -4.84801792e-02 9.44229439e-02
      5.11277020e-02 2.92968303e-02 -4.30461578e-02 1.20218977e-01
      1.33878112e-01 4.08556461e-02 2.79226210e-02 1.00816272e-01
      1.24142811e-01 1.37563171e-02 3.24791260e-02 1.82059854e-02
      -1.18692592e-02 -2.34109792e-03 -1.36453718e-01 8.16561207e-02
      -5.33789620e-02 -3.29825990e-02 3.88146825e-02 2.81042233e-02
      6.22987971e-02 -2.29369681e-02 -1.38846099e-01 1.79804295e-01
      -1.74164802e-01 2.10257736e-03 1.45504698e-01 9.07242969e-02
      4.17090729e-02 -3.04196551e-02 1.60972968e-01 1.08219482e-01
      1.07050933e-01 -7.15668593e-03 8.61970633e-02 -3.88624915e-03
      -7.18434900e-03 -1.32490292e-01 -3.18226330e-02 -5.85016683e-02
      -4.37456295e-02 -1.39185503e-01 7.33975619e-02 -4.08386476e-02
      2.70324629e-02 1.03258364e-01 3.20404321e-02 -3.47522530e-03
      -2.91815354e-03 -9.68413278e-02 9.95051935e-02 -9.31606814e-02
      -5.69110513e-02 -1.15040012e-01 -8.31395015e-02 -3.96714583e-02
      8.85912776e-03 1.60616353e-01 6.90917596e-02 7.01879859e-02
      -1.16983496e-01 -1.19275358e-02 -5.62141016e-02 7.96308683e-04
      -1.10313997e-01 2.27802545e-02 6.72302023e-02 1.67909652e-01
      -9.79937986e-03 1.65661976e-01 2.46779144e-01 -1.31512895e-01
      -9.46748555e-02 -1.17624246e-01 -5.00380993e-02 -1.04425862e-01
      -1.57516196e-01 2.16726270e-02 -1.81433126e-01 -1.22251593e-01
      -1.35347143e-01 -9.27308276e-02 -1.31568359e-02 -1.01094283e-01
      4.02202345e-02 3.52746844e-02 -9.79257654e-03 -6.52017295e-02
      1.23653878e-02 -7.45402873e-02 2.03830432e-02 -2.63621122e-01
      2.62217894e-02 6.01449683e-02 1.55882969e-01 -6.90760687e-02
      9.51321274e-02 4.27844450e-02 -2.85733134e-01 -8.52506980e-02
      -1.02338485e-01 1.53578281e-01 5.21579795e-02 1.34601846e-01
      1.06412508e-01 1.07647188e-01 1.28343210e-01 -8.89663473e-02
      -7.19496235e-02 -1.30185679e-01 -1.47073954e-01 -2.73157954e-02
      -8.55718926e-02 -8.96724463e-02 -7.00601935e-02 -8.22387785e-02
      -1.34786010e-01 1.39327303e-01 -2.33326510e-01 -3.51742096e-02
      -3.97882570e-04 -1.02679610e-01 1.00961991e-01 6.85116202e-02
      2.04482138e-01 3.12508345e-02 -3.00810337e-02 -3.39428425e-01
      7.89869130e-02 -4.51101512e-02 -2.06439756e-02 -1.21807642e-02
      -5.72945410e-03 -7.78414011e-02 -2.22799316e-01 -1.28049463e-01
      -1.62834629e-01 -3.94925568e-03 3.40728648e-03 -1.71958338e-02
      -2.78616734e-02 -1.28541991e-01 -1.16571538e-01 9.32368860e-02
      -6.88713491e-02 2.09169704e-02 -8.57276544e-02 -5.61465248e-02
      -1.93256021e-01 -1.19360564e-02 -7.18871579e-02 1.01964302e-01
      -1.31452465e-02 -1.42041072e-01 -2.53347576e-01 6.90994337e-02
      2.51718193e-01 7.10877702e-02 7.09025711e-02 3.84663008e-02
      7.69886971e-02 6.28880858e-02 -3.46778333e-02 -1.48891702e-01
      -6.39740229e-02 -2.20904484e-01 1.68414205e-01 2.80339748e-01
      6.73769927e-03 -7.33079622e-03 9.55802500e-02 1.10470198e-01
      2.42888883e-01 5.22220470e-02 -3.44395012e-01 -1.64689690e-01
      -4.33939658e-02 1.12484964e-02 -1.17511734e-01 -4.74940613e-02
      -7.80517906e-02 -2.34824996e-02 -3.44054252e-01 -1.91079333e-01
      3.30172032e-01 3.22930545e-01 1.28596410e-01 7.14956522e-02
      -2.16444973e-02 1.48958722e-02 1.72413010e-02 -2.26435974e-01
      -1.39034763e-01 -4.66791615e-02 2.43242341e-03 -7.57465959e-02
      -6.26529800e-03 -3.26051675e-02 -5.87982833e-02 -2.22494490e-02
      1.46935478e-01 -2.22069651e-01 -2.02070232e-02 1.12008266e-01
      8.76365602e-02 -4.51488979e-02 5.68729779e-03 1.15663707e-02
      7.40540028e-02 -8.88524503e-02 9.07450691e-02 -6.69808267e-03
      -1.13703839e-01 -1.64860934e-01 -4.19142395e-02 6.96619153e-02
      -6.49442449e-02 -2.39939597e-02 9.07360762e-02 5.75987995e-03
      -1.12481922e-01 2.69645080e-02 -3.52260172e-02 5.61973639e-02
      -9.23823658e-03 -8.92409310e-03 1.74892753e-01 8.05449486e-02
      5.37899658e-02 -1.26067251e-01 -4.16915976e-02 1.23946462e-02
      -1.07766159e-01 -4.71707955e-02 -7.21242055e-02 7.83958659e-02
      -2.51320936e-02 1.96824566e-01 3.04388016e-01 1.38078406e-01
      6.02159016e-02 1.11000493e-01 1.88457072e-01 -1.08413603e-02
      3.75562087e-02 -9.20111965e-03 2.90446519e-03 -4.59408872e-02
      -1.20071366e-01 -2.72016171e-02 -1.05963036e-01 -6.73712939e-02
      2.76738256e-02 -1.87494606e-02 1.43559366e-01 1.04265116e-01
      3.59323621e-02 5.87778762e-02 6.54612407e-02 -4.65031229e-02
      -5.34239635e-02 -1.29156944e-03 1.91718012e-01 -7.23540336e-02
      -1.73189253e-01 -8.39696638e-03 -3.75158824e-02 -1.18768156e-01
      4.23778221e-02 -4.99888975e-03 3.06513011e-02 -5.53307422e-02
      -2.11357791e-02 2.85257143e-03 7.66326040e-02 7.60703757e-02
      1.67419985e-01 -8.17715153e-02 5.42773923e-04 9.42424908e-02
      -1.54071366e-02 5.40059758e-04 3.02819181e-02 -8.97110999e-03
      1.07921295e-01 -5.25118075e-02 5.98729774e-02 1.36219338e-01
      4.26249355e-02 5.22289611e-02 4.41067200e-03 -5.19495755e-02
      -7.44691491e-03 -2.68679075e-02 -3.18037048e-02 6.82323892e-03
      -3.54467593e-02 3.46709266e-02 -3.59436870e-02 7.24383220e-02
      3.78412046e-02 9.44749564e-02 8.88592005e-02 6.03744797e-02
      6.24534190e-02 2.37264987e-02 -5.29343188e-02 2.54501011e-02
      -4.42479327e-02 -4.41955961e-02 -2.80210469e-02 9.42063332e-02
      -1.41737238e-01 -5.93601838e-02 -2.22082864e-02 -1.01271302e-01
      -2.28618048e-02 -4.89550233e-02 3.13008693e-03 5.53657301e-02
      3.49528678e-02 -1.21991999e-01 4.18860689e-02 3.61450985e-02
      2.95314759e-01 2.23609023e-02 9.28750820e-03 -1.68658793e-01
      -1.04244262e-01 3.34921144e-02 1.97685026e-02 1.13841370e-02
      3.57744247e-02 -7.90813416e-02 -4.16674316e-02 -2.72308234e-02
      -1.48828514e-02 -1.61143132e-02 1.96790025e-02 3.24292690e-03
      2.51727514e-02 1.30147124e-02 -2.04037931e-02 3.22051868e-02
      -1.39745727e-01 2.94957979e-04 -3.28858830e-02 -4.01572287e-02
      -1.04945630e-01 -1.02041833e-01 -2.02776864e-01 5.47004566e-02
      -1.84619904e-01 1.65709499e-02 5.04617915e-02 -6.27600104e-02
      6.54887110e-02 -1.20343836e-02 1.79084599e-01 1.09974839e-01
      1.86225194e-02 -2.05557868e-01 -5.60375303e-02 -6.90843984e-02
      -6.79437220e-02 -4.51136231e-02 -4.05273587e-02 3.57548222e-02
      -1.18113615e-01 -1.71666935e-01 -1.74489319e-02 -4.46215495e-02
      2.35178825e-02 -6.37700316e-03 1.23147011e-01 6.84139952e-02
      5.36606349e-02 1.80149242e-01 -4.01596427e-02 -1.52326658e-01
      -1.09400731e-02 1.94149576e-02 -1.27891451e-01 2.16139089e-02
      -8.13982263e-02 5.16338870e-02 -6.54029921e-02 -2.22171605e-01
      -2.79430360e-01 7.23045394e-02 2.25397170e-01 5.82274757e-02
      4.73044850e-02 2.35857666e-02 5.19815050e-02 1.92808881e-02
      -5.92326373e-02 -1.39899477e-01 1.07093956e-02 3.55370119e-02
      -7.70295411e-02 5.26011251e-02 -2.79817730e-02 -3.14680524e-02
      4.58300114e-03 -2.74241716e-01 -2.67256916e-01 -3.07860523e-01
      3.97073850e-02 1.58147722e-01 1.06838182e-01 7.76501521e-02
      5.63320518e-02 2.11514428e-01 1.43363416e-01 -6.87467605e-02
      -3.05263668e-01 -1.74377248e-01 3.27710390e-01 3.26597959e-01
      1.09326817e-01 8.21706429e-02 2.07613930e-02 4.53575626e-02
      -6.48218114e-03 -2.01463327e-01 -1.84527919e-01 -1.24409758e-01
      -4.45026420e-02 -8.61611590e-02 -2.07189955e-02 -2.78571006e-02
      -5.71126230e-02 2.73538288e-02 -2.74851352e-01 1.65565498e-02
      1.54054895e-01 9.67172831e-02 5.15776612e-02 6.25447929e-02
      1.40061423e-01 1.04621157e-01 6.82190713e-03 -7.32792765e-02
      3.22020687e-02 -1.27698788e-02 1.18109465e-01 -9.45392922e-02
      2.75278613e-02 -2.68673012e-03 -3.52230400e-01 -1.12084456e-01
      -3.47660854e-02 -3.94469611e-02 -2.69684419e-02 8.02755356e-03
      -3.16739976e-02 6.26819208e-02 -1.75916906e-02 -1.71765927e-02
      8.97424817e-02 9.30390805e-02 6.26772419e-02 -8.95230770e-02
      -7.16933459e-02 -2.35408731e-02 -8.68490636e-02 2.01797709e-02
      -7.21751451e-02 1.10858157e-01 -2.96977684e-02 -3.92722338e-02
      -8.70406106e-02 1.15508988e-01 -5.49833626e-02 1.00379057e-01
      1.02507733e-01 -1.80086255e-01 8.26821104e-02 -5.94746955e-02
      -1.31204844e-01 -9.32032391e-02 -5.19668311e-02 -2.17573103e-02
      -7.06284940e-02 -2.03656450e-01 -2.29790106e-01 -1.24450274e-01
      2.92341918e-01 2.44219646e-01 2.01416329e-01 1.18732587e-01
      7.37812445e-02 -7.25170746e-02 -8.70406777e-02 -6.82528168e-02
      2.17895314e-01 -8.13465640e-02 -9.57153961e-02 -9.14074574e-03
      -4.67584804e-02 -9.38975513e-02 1.30021513e-01 1.88650861e-02
      2.63422187e-02 -9.31067616e-02 -7.18879607e-03 -9.89701003e-02
      -1.03961498e-01 -5.71200326e-02 -1.02856360e-01 -8.31325501e-02
      5.34177162e-02 1.51707157e-01 1.48201957e-01 6.87254732e-03
      -7.09310621e-02 -1.45975336e-01 1.31556364e-02 -1.40009388e-01
      3.18363048e-02 -4.60561626e-02 -4.92877550e-02 -4.41046581e-02
      2.92603970e-02 1.00620508e-01 1.35860413e-01 -7.97110144e-03
      -9.64595750e-02 2.11880840e-02 -1.48950948e-03 6.85276687e-02
      -4.09015194e-02 8.87083262e-02 -5.03264852e-02 5.94607480e-02
      7.84410089e-02 -1.41461445e-02 7.48925954e-02 1.26491543e-02
      -5.64932339e-02 6.60270154e-02 1.30422130e-01 1.17281880e-02
      -4.19389792e-02 5.16845919e-02 -5.36594093e-02 9.66224670e-02
      3.78413759e-02 -6.36487035e-03 2.70490032e-02 -5.43334447e-02
      1.52499676e-01 6.30594343e-02 -2.85549127e-02 -7.09054917e-02
      2.12173667e-02 -4.68192901e-03 3.52234580e-02 -2.65367038e-04
      4.15082052e-02 -1.16081655e-01 -7.16169700e-02 2.44694334e-02
      -7.41110817e-02 3.40770860e-03 -6.03120700e-02 -8.54618549e-02
      1.15867704e-03 -2.10040063e-02 -7.21207187e-02 -8.88819247e-02
      -6.37255237e-02 -2.32923795e-02 -3.57230976e-02 3.73586453e-02
      1.47641465e-01 1.08565025e-01 -1.53793558e-01 -2.99365297e-02
      -7.15061650e-02 -8.23563337e-02 -7.73347616e-02 1.18790142e-01
      -1.00819683e-02 -3.42794023e-02 -1.02480337e-01 3.44761312e-01
      1.86452448e-01 6.44260645e-02 1.49178490e-01 5.56558184e-02
      -1.12505995e-01 -4.64970469e-02 -7.40293488e-02 2.13410124e-01
      -1.25725508e-01 -1.44748792e-01 -1.18455991e-01 -7.94195831e-02
      -5.42344972e-02 -3.41797881e-02 -1.87606782e-01 -1.90412745e-01
      -1.28109097e-01 2.79248552e-03 1.46634812e-02 -8.81624296e-02
      7.64785931e-02 4.58316877e-02 -3.82078881e-03 8.56204703e-02
      -9.36517566e-02 -6.79766089e-02 9.81998071e-02 -4.33901548e-02
      -1.71282694e-01 5.27710319e-02 -1.21716810e-02 -1.33244440e-01
      3.46812494e-02 -6.25145882e-02 1.50443181e-01 -2.33912859e-02
      -9.33669657e-02 -5.86383417e-02 -6.25158427e-03 -7.40721226e-02
      6.71319813e-02 -4.55504432e-02 4.71951067e-02 7.26063922e-02
      2.27120426e-02 7.65186697e-02 -4.53775190e-02 8.11114311e-02
      -7.61080300e-03 -4.85827215e-02 -4.05525230e-02 -2.99748510e-01
      -2.30549470e-01 -2.61819303e-01 2.37499606e-02 1.38879493e-01
      1.10736772e-01 7.63147101e-02 4.80063707e-02 1.91443413e-01
      1.54708922e-01 -5.57514355e-02 -1.90832257e-01 -2.18393505e-01
      -1.38820216e-01 -2.74606701e-02 -1.48064435e-01 -1.65371969e-02
      -3.29187810e-02 -1.60868037e-02 2.72493586e-02 -2.68480152e-01
      -1.90906078e-01 3.53528917e-01 3.21244866e-01 9.75025669e-02
      4.92771640e-02 6.89872876e-02 9.64632630e-02 1.80060789e-02
      -2.92772889e-01 2.43547857e-02 1.49471521e-01 7.28155822e-02
      3.30455564e-02 5.81926778e-02 1.57562032e-01 9.39243883e-02
      -2.66376194e-02 -1.05889849e-01 -3.92635539e-02 -5.72751909e-02
      8.79472345e-02 -1.25435308e-01 4.24636416e-02 5.03830574e-02
      -3.43344539e-01 -1.31144866e-01 8.64299163e-02 2.77397454e-01
      6.05735816e-02 1.46292951e-02 8.62001721e-03 5.30202724e-02
      7.84678832e-02 7.20104054e-02 -1.37408867e-01 -1.43216923e-02
      -1.80670340e-02 -1.51356041e-01 1.39494194e-02 -8.50406587e-02
      1.09032476e-02 -4.57808189e-02 -2.93744147e-01 -3.07941467e-01
      -1.10093318e-01 -5.71604371e-02 -2.49537975e-02 1.40017360e-01
      -3.66546661e-02 1.80377766e-01 2.22155631e-01 -9.30390134e-02
      8.01604986e-02 5.87685928e-02 -6.88319951e-02 -4.18734290e-02
      -3.67413857e-03 1.73584297e-02 -2.06693038e-02 -1.40287489e-01
      -2.51041591e-01 -3.84285972e-02 6.14215359e-02 1.56270396e-02
      -1.09950997e-01 3.22956070e-02 4.95011406e-03 1.20709270e-01
      1.39626339e-01 -4.19241600e-02 -1.62521765e-01 -7.98043907e-02
      6.84985146e-02 5.14199436e-02 3.75225469e-02 -2.37900943e-01
      -1.30306363e-01 -2.31640354e-01 5.14159091e-02 -1.54383078e-01
      5.41059941e-04 -2.68155094e-02 -3.69076245e-02 1.58440918e-02
      3.56739722e-02 1.80451409e-03 -2.32371166e-02 -8.21455196e-02
      4.89740558e-02 -9.65301227e-03 -8.24325159e-02 -1.39344528e-01
      7.81684741e-02 3.01852059e-02 9.97567475e-02 5.41747473e-02
      -5.82218282e-02 -9.09478888e-02 -9.09060687e-02 5.88385994e-03
      8.13223720e-02 9.24515054e-02 -1.96505636e-01 1.26369268e-01
      8.98306593e-02 3.39136153e-01 8.59518051e-02 -5.28597161e-02
      2.12913118e-02 2.61425935e-02 1.95274606e-01 -1.16571844e-01
      -9.99463722e-03 -1.89932622e-02 -5.99582605e-02 -4.39532213e-02
      6.82480559e-02 9.55981091e-02 5.52827260e-04 1.08922161e-01
      1.06180921e-01 1.15836099e-01 -1.08454349e-02 -3.82960625e-02
      -3.30312476e-02 -5.87666892e-02 4.49512415e-02 -5.64427935e-02
      -3.89753245e-02 4.03158925e-02 6.21798784e-02 -1.35663524e-02
      -8.64248909e-03 3.66207063e-02 -2.80930568e-02 8.70971903e-02
      4.10847515e-02 1.88100532e-01 -4.27172296e-02 1.11554623e-01
      1.00100696e-01 5.85951917e-02 6.91528805e-03 -2.33841594e-02
      6.65855259e-02 -2.29457747e-02 4.47382554e-02 1.39637157e-01
      -1.18470669e-01 7.72021711e-02 5.65427206e-02 3.68363969e-02
      -1.06714174e-01 -5.84447198e-02 -6.54527396e-02 -1.06102251e-01
      -1.15801066e-01 4.53579277e-02 -5.64756105e-04 -8.15454591e-03
      -4.17679846e-02 2.04891846e-01 8.81029814e-02 -3.45037505e-02
      1.61593884e-01 1.00325331e-01 -6.25537708e-02 4.24673334e-02
      -1.78802181e-02 1.73191562e-01 -1.33395687e-01 1.96542200e-02
      -1.21851355e-01 -7.81017169e-02 5.19042909e-02 -7.32765794e-02
      3.78808789e-02 -3.70574221e-02 -9.62287411e-02 -2.69567431e-03
      2.37149179e-01 2.59543419e-01 1.49292275e-01 1.25043005e-01
      2.23660264e-02 1.83477804e-01 -1.75543167e-02 5.90742119e-02
      1.11429930e-01 -1.63340970e-04 -1.90299615e-01 5.66958673e-02
      2.51773912e-02 -1.83065847e-01 -1.64654676e-03 -1.13364853e-01
      1.13707669e-01 1.10883020e-01 -9.15463194e-02 -1.44116387e-01
      -8.29872093e-04 -9.49127153e-02 6.17046058e-02 -2.83220615e-02
      3.43255214e-02 1.22651204e-01 -6.86194226e-02 1.27578989e-01
      -3.03255599e-02 -7.56609216e-02 -1.11077912e-01 -1.72527894e-01
      5.86206578e-02 -7.31470585e-02 1.20628793e-02 1.03305504e-01
      -1.75110683e-01 -7.26541355e-02 1.81959808e-01 1.10885538e-01
      6.04559444e-02 -4.78252769e-02 8.11766181e-03 9.39257443e-02
      -2.57151932e-01 -2.16251120e-01 -7.65686706e-02 1.19773159e-02
      -1.57741010e-01 -1.75271202e-02 -3.64632122e-02 -1.91255230e-02
      -5.22692464e-02 -3.98752868e-01 -2.07235411e-01 3.59203279e-01
      3.08579773e-01 1.04773819e-01 4.43580709e-02 4.66499701e-02
      6.91846162e-02 1.53186191e-02 3.14752981e-02 -3.04225951e-01
      -2.36382753e-01 -2.22897455e-02 1.16657410e-02 -7.16171600e-03
      -9.95837450e-02 -3.82649302e-02 4.79618460e-02 4.44791988e-02
      -2.69218773e-01 8.56171921e-02 2.52266705e-01 6.34112433e-02
      -3.07224412e-03 8.46307501e-02 1.08799540e-01 1.75636277e-01
      6.42695725e-02 2.98404187e-01 6.78875148e-02 5.72476676e-03
      -4.06109653e-02 1.41070187e-02 9.56806391e-02 8.91549885e-02
      -2.01544583e-01 -9.10298377e-02 -7.00033456e-02 -2.29327440e-01
      -2.58956198e-02 -1.24106146e-01 2.06542993e-03 -1.81718860e-02
      -2.52224743e-01 -2.70285755e-01 1.10190190e-01 7.64744580e-02
      -9.54074133e-03 1.83158424e-02 -2.53395401e-02 -8.30307677e-02
      9.49533582e-02 -1.80446468e-02 9.97489914e-02 2.53146850e-02
      -2.37714201e-02 2.66783852e-02 -4.45547923e-02 -4.73455712e-02
      -9.35945809e-02 -2.02349678e-01 -1.57274112e-01 -1.44978121e-01
      3.54272984e-02 -1.82751082e-02 -1.51847929e-01 5.34797721e-02
      1.68938898e-02 1.26850188e-01 5.21110520e-02 -1.17360048e-01
      -2.76576638e-01 -8.65007788e-02 4.18230221e-02 3.20659280e-02
      -8.00893549e-03 -2.64691085e-01 -9.28463861e-02 -2.06185356e-01
      8.38779435e-02 -2.50080734e-01 9.47347656e-02 3.57687175e-02
      1.31687060e-01 5.28571457e-02 1.51446357e-01 1.74722597e-01
      -7.74486107e-04 -1.01057634e-01 -9.49517265e-02 -4.60663158e-03
      5.58213443e-02 1.86087102e-01 -3.79774421e-02 2.15474330e-02
      3.21747512e-02 -3.11744213e-01 -1.65228352e-01 5.30028939e-02
      -1.37904525e-01 4.72861677e-02 1.08290188e-01 6.80724159e-02
      -1.61928475e-01 5.65749370e-02 -9.08946693e-02 1.93435103e-02
      -2.66683400e-01 -2.96266675e-02 -4.11579087e-02 -1.53737277e-01
      6.80006295e-02 -1.26328290e-01 -4.54925112e-02 -1.04953527e-01
      -8.66734684e-02 -1.23814791e-01 -5.81246465e-02 6.29271343e-02
      2.01914057e-01 2.32084952e-02 1.18923962e-01 2.78348207e-01
      -9.74241123e-02 -1.59171522e-01 -1.44824181e-02 1.10664805e-02
      1.23393200e-01 9.29771587e-02 5.28829321e-02 -1.00924313e-01
      8.91942382e-02 -9.90894586e-02 6.02586009e-02 7.83963222e-03
      -2.19693482e-02 3.29508223e-02 -1.01742394e-01 1.04175739e-01
      -9.46627334e-02 5.56771457e-02 -1.07036598e-01 -4.93403524e-02
      -1.37542948e-01 -9.98973027e-02 -3.60213295e-02 -1.79005414e-01
      -1.54081091e-01 4.96980101e-02 -6.70587942e-02 9.49154124e-02
      5.31073883e-02 3.67970392e-02 -5.90744242e-03 1.15244187e-01
      1.12340212e-01 1.27312869e-01 4.73552383e-02 1.62714437e-01
      -4.94899005e-02 5.55380657e-02 5.01463702e-03 6.68158308e-02
      4.79488820e-02 -1.40937671e-01 1.37628645e-01 -1.93457842e-01
      -3.77418287e-03 1.28432289e-01 2.15841532e-02 5.99402897e-02
      -1.47141397e-01 -2.17025056e-02 -1.92752257e-01 -1.70919329e-01
      2.28063744e-02 -9.07298923e-02 7.02313036e-02 2.07873527e-03
      -6.86501414e-02 -1.37701137e-02 1.43053934e-01 1.15824781e-01
      1.30305544e-01 8.27546194e-02 -4.96318713e-02 1.07609190e-01
      4.44284966e-03 4.56214733e-02 3.25136334e-02 5.61552271e-02
      -1.19457349e-01 3.38063985e-02 -2.16430008e-01 -4.58443686e-02
      9.12588164e-02 -1.56306494e-02 2.08941586e-02 -5.30821905e-02
      -1.30734101e-01 1.19227134e-01 1.64849181e-02 6.87898323e-02
      1.63165629e-01 2.66527403e-02 -5.86076174e-03 2.29005888e-02
      -1.26890853e-01 8.53070691e-02 -5.38777895e-02 -6.86213700e-03
      -6.28728271e-02 -2.09702611e-01 3.34095843e-02 -8.15762132e-02
      -1.70793589e-02 9.81941968e-02 -1.74470380e-01 -1.36355534e-01
      8.73553082e-02 1.08342417e-01 1.03923686e-01 -7.12473243e-02
      1.12544941e-02 7.79955238e-02 -1.14043064e-01 -1.80541798e-01
      -4.79892530e-02 -2.14454785e-01 -1.22735284e-01 1.30644068e-01
      2.41728574e-02 -5.88945055e-04 -2.03704811e-03 9.60550979e-02
      -5.85560920e-03 -1.33139297e-01 7.34309182e-02 1.48654699e-01
      9.78371873e-02 9.93614718e-02 1.22425832e-01 1.68119296e-01
      2.50693206e-02 -2.52494991e-01 -2.03269467e-01 -5.51262929e-04
      3.25194746e-02 1.74137931e-02 -1.27508909e-01 -5.75729422e-02
      3.04410998e-02 3.92015167e-02 -2.90945798e-01 1.37398541e-01
      3.23974311e-01 4.29820716e-02 -3.94487157e-02 7.18451887e-02
      8.92197713e-02 1.61193416e-01 9.86814965e-03 -7.48484656e-02
      -3.64555866e-01 -2.30492130e-01 7.88059086e-03 1.81490611e-02
      5.89498021e-02 6.49718419e-02 6.47104159e-02 -3.91943455e-02
      1.34560049e-01 7.94912353e-02 8.72567594e-02 -3.42358346e-03
      -3.89268436e-02 1.51067665e-02 3.49243581e-02 1.57577679e-01
      1.01273715e-01 3.98211665e-02 -6.73886091e-02 -3.01366989e-02
      -4.44524996e-02 -3.39577980e-02 8.08945522e-02 -3.29125114e-02
      7.19830766e-02 2.11027563e-02 -5.24950959e-02 -2.71742642e-02
      -7.70449564e-02 -7.05880448e-02 -9.34740305e-02 -1.70175105e-01
      -8.91479477e-02 -1.76873863e-01 1.83272034e-01 -9.00094286e-02
      -1.37217790e-01 -6.78561628e-02 -8.02372992e-02 -1.98091462e-01
      -8.32071975e-02 5.71635440e-02 -1.16982013e-02 -3.98903619e-03
      1.57278925e-02 1.10068079e-02 -2.54224315e-02 -1.12464942e-01
      -8.61480087e-02 -8.91266838e-02 -4.03698571e-02 3.56117636e-02
      3.33817750e-02 -4.65124063e-02 1.41009483e-02 -4.25881818e-02
      6.82439283e-03 -3.74378189e-02 -1.51718721e-01 -1.18262880e-01
      -1.55448303e-01 -1.40693694e-01 -2.22345479e-02 4.39579226e-02
      -1.66065842e-01 -1.13362059e-01 -1.36103824e-01 -3.96742970e-01
      -1.87898979e-01 -9.55863446e-02 1.90423522e-02 8.72619376e-02
      8.44893381e-02 5.57699353e-02 -1.00822160e-02 -1.09455595e-02
      -4.50134315e-02 -1.62722021e-02 8.38888926e-04 -5.37543669e-02
      -4.29976825e-03 1.47092476e-01 1.37773961e-01 -5.97497709e-02
      -6.26335293e-02 -1.86002463e-01 1.84732854e-01 6.38176501e-02
      -1.09869182e-01 3.51878516e-02 1.24085277e-01 -7.25097805e-02
      -2.12198915e-03 -1.16348686e-02 -2.84030378e-01 -1.64009854e-01
      -5.51820807e-02 -1.10961877e-01 3.80365215e-02 1.64359491e-02
      -9.94244441e-02 -2.47959465e-01 -1.09966174e-01 -1.24141321e-01
      5.87483458e-02 -9.56749171e-02 -1.83414724e-02 3.94057557e-02
      1.65152594e-01 1.44905612e-01 -9.47383121e-02 -7.30964839e-02
      -1.74315497e-01 1.46904707e-01 6.21882603e-02 4.96251918e-02
      9.29420888e-02 -2.41744914e-03 7.98877105e-02 1.07113994e-03
      -2.52126664e-01 1.28643382e-02 1.63568974e-01 6.28001615e-02
      -4.81750332e-02 9.33445022e-02 8.31306130e-02 -9.79692210e-04
      -1.25484541e-01 -3.96392159e-02 -1.38536051e-01 1.83390826e-02
      -7.15287849e-02 3.66186164e-02 1.92661025e-02 -1.19347230e-01
      -6.71358109e-02 -3.67142618e-01 -1.86669901e-01 -3.38359028e-02
      -2.50802226e-02 2.58732736e-02 5.09628654e-02 9.28093791e-02
      1.21617485e-02 8.64223614e-02 1.38915315e-01 -1.72747597e-01
      1.44606456e-02 1.57988116e-01 7.07244650e-02 2.12633744e-01
      4.13087830e-02 1.88968897e-01 2.39683792e-01 -2.87620127e-01
      -9.05699283e-02 2.68450268e-02 -5.28805796e-03 1.45866707e-01
      -2.49224231e-02 -8.75377376e-03 -1.04289778e-01 -9.17361379e-02
      -3.17558616e-01 -2.55494058e-01 -1.05295695e-01 -6.82361573e-02
      -1.03686061e-02 -8.20331573e-02 -1.43351540e-01 -2.50542201e-02
      -1.21447027e-01 -3.44094709e-02 4.15849462e-02 -7.75185600e-02
      -1.09190442e-01 -3.86825912e-02 1.99659362e-01 2.58552637e-02
      1.73275560e-01 2.16767162e-01 -3.00059348e-01 -1.40208289e-01
      2.11013276e-02 -9.97115765e-03 1.65239677e-01 9.97587219e-02
      6.24532402e-02 1.57862529e-01 -1.75442144e-01 -4.89927754e-02
      1.62878707e-01 -6.80745021e-02 -4.25827466e-02 5.21073155e-02
      -1.09755181e-01 -1.28549203e-01 1.19340699e-02 -8.05912316e-02
      -7.01435134e-02 -3.54472212e-02 -1.04596533e-01 -1.20957077e-01
      -6.23661578e-02 3.26954536e-02 -1.16205655e-01 -3.74686003e-01
      -1.59471914e-01 1.22225814e-01 5.66772893e-02 8.91595408e-02
      6.88980073e-02 5.73728532e-02 9.93152484e-02 5.30132316e-02
      1.14909522e-01 -2.48310909e-01 -1.79783583e-01 5.61469654e-03
      -1.00001894e-01 -7.30592906e-02 4.02045660e-02 9.05555338e-02
      7.13981017e-02 -2.29140297e-02 -1.42865315e-01 -1.74871273e-02
      1.12305000e-01 2.46979415e-01 1.11702971e-01 3.25494148e-02
      1.09881749e-02 -1.10083416e-01 -3.56221646e-01 -2.60408998e-01
      1.15727104e-01 4.86363731e-02 9.28434059e-02 5.53651825e-02
      3.44098061e-02 1.57725662e-01 7.65107423e-02 7.23602697e-02
      9.23082307e-02 -1.04722008e-02 -4.91195545e-02 2.12001186e-02
      2.39655469e-02 1.30447492e-01 1.07192434e-01 4.22297455e-02
      -5.50367050e-02 -1.18872054e-01 -3.90114710e-02 7.30733573e-02
      2.19244450e-01 7.69048780e-02 1.26665067e-02 -1.44732222e-02
      1.36950210e-01 2.62548625e-02 5.56930229e-02 5.30710109e-02
      -7.50844479e-02 9.47668329e-02 -2.38384549e-02 -1.01524353e-01</_></support_vectors>
  <decision_functions>
    <_>
      <sv_count>1</sv_count>
      <rho>-6.0218507520387456e+00</rho>
      <alpha>
        1.</alpha>
      <index>
        0</index></_></decision_functions></my_svm>
</opencv_storage>
