<?xml version="1.0"?>
<opencv_storage>
<my_svm type_id="opencv-ml-svm">
  <svm_type>NU_SVC</svm_type>
  <kernel><type>LINEAR</type></kernel>
  <nu>1.0000000000000000e-02</nu>
  <term_criteria><epsilon>2.2204460492503131e-16</epsilon>
    <iterations>10000</iterations></term_criteria>
  <var_all>4096</var_all>
  <var_count>4096</var_count>
  <class_count>2</class_count>
  <class_labels type_id="opencv-matrix">
    <rows>1</rows>
    <cols>2</cols>
    <dt>i</dt>
    <data>
      -1 1</data></class_labels>
  <sv_total>1</sv_total>
  <support_vectors>
    <_>
      -7.33129382e-02 -1.95890963e-02 -1.23019442e-01 -1.37935206e-01
      -2.80459342e-03 9.17786558e-04 -7.27511197e-03 -1.76493704e-01
      -1.24127246e-01 3.04768706e-04 -8.37786589e-03 -6.32628379e-03
      2.07491219e-03 -6.44772826e-03 -1.06490916e-03 -2.16709569e-01
      -1.38061428e-02 2.45100819e-03 -1.65254939e-02 3.22002568e-03
      6.29311835e-05 -3.88131011e-03 -1.56831590e-03 2.10624374e-03
      -3.41677368e-02 -1.21793570e-03 -5.80115651e-04 3.67710344e-03
      1.39526641e-02 -3.07951379e-03 -1.71790883e-01 -1.31754115e-01
      -2.26345696e-02 2.04641605e-03 -3.55004258e-02 -3.95859443e-02
      -1.33204116e-02 2.26128590e-03 -2.21904693e-03 -3.41649260e-03
      1.17692375e-03 8.56948551e-04 1.91174899e-04 9.47872759e-04
      -6.43509207e-03 -2.80325697e-03 -1.27513381e-02 3.84037360e-03
      -5.44770025e-02 -9.24418401e-03 -9.62646864e-03 -1.12371501e-02
      -5.95580554e-03 0. 4.60312888e-03 -2.43421248e-03 -4.07289192e-02
      -1.49019659e-02 -5.78496652e-03 8.42932053e-03 -6.88705966e-02
      7.27330241e-03 -4.74999994e-02 -2.96005942e-02 -1.49468714e-02
      -3.18272877e-03 -4.66744974e-03 -1.73407292e-03 -7.34206638e-04
      9.47872759e-04 -7.11698132e-03 -1.17728370e-03 2.61527639e-05
      4.59123024e-04 6.29311835e-05 0. -4.02229419e-03 0.
      -5.18921949e-03 3.86561290e-03 -7.94777181e-03 -3.88131011e-03
      -1.59078510e-03 -5.52918471e-04 -1.46628532e-03 0. -2.17440492e-03
      -3.99212440e-05 -9.38238483e-03 0. 0. -2.16726097e-03
      -4.55118716e-03 0. -1.61958355e-02 -1.85978487e-02 -4.56741899e-02
      -8.87933001e-03 -1.51399945e-04 1.51862167e-02 -3.51872412e-03
      -8.22146796e-03 -1.87155814e-03 2.92081677e-04 -2.12165844e-02
      -3.88131011e-03 6.62646955e-04 -1.46642502e-03 4.78272466e-03
      -1.94909051e-03 1.34109529e-02 1.26569374e-02 4.07937206e-02
      -7.00472528e-03 -9.73084103e-03 1.40244700e-02 -2.69672787e-03
      -7.76262023e-03 8.20832048e-03 -7.24058365e-03 -1.54123437e-02
      -4.08986397e-03 -1.35669461e-03 -2.78967479e-03 -2.90745139e-01
      -1.59093235e-02 1.56168230e-02 1.25427498e-02 -1.24486499e-01
      4.41182069e-02 1.73579645e-03 1.80091023e-01 -9.86507584e-05
      -2.20701424e-03 -1.14296200e-02 -1.30294353e-01 -6.11487813e-02
      -1.57998526e-03 -2.86991894e-03 1.52071624e-03 6.64502569e-03
      -1.96706527e-03 -1.70380790e-02 6.25914037e-02 -1.52797205e-02
      -6.37956755e-03 -2.50859623e-04 -9.28893045e-04 -3.60630197e-03
      6.62646955e-04 6.61755796e-04 -2.24241492e-04 -3.26552130e-02
      -8.80025234e-03 2.15438474e-03 3.61309294e-03 2.45831627e-03
      -7.90711772e-03 5.00641484e-03 -5.60594238e-02 -2.66959425e-03
      5.61244367e-03 8.31018854e-03 2.57264301e-02 -5.20333473e-04 0.
      -2.66605639e-03 -1.48375910e-02 2.83405371e-03 -1.33622182e-03
      -1.52921653e-03 -3.12146149e-04 -1.33622182e-03 -5.14111854e-03
      -5.30543784e-03 -6.72059320e-03 -1.49676362e-02 1.86003081e-03
      1.14358962e-03 6.73006941e-03 -3.88131011e-03 -4.68663033e-03
      4.06972220e-04 -1.28318006e-02 1.70013886e-02 5.34922723e-03
      3.30990367e-03 -3.67569807e-03 -1.06079867e-02 -3.06084286e-04
      4.74600680e-03 4.09185290e-02 9.95980296e-03 6.12820312e-02
      -9.36778821e-03 1.98264897e-01 -1.22017600e-03 2.62377411e-03
      1.13742650e-02 2.52295792e-01 1.20927747e-02 5.04499068e-03
      1.78011542e-03 -1.69177633e-03 -5.57784969e-03 1.14929248e-02
      1.12966821e-02 1.15769589e-02 -8.35543405e-03 2.65266135e-04
      -3.86046036e-03 -5.59382746e-03 0. -1.46642502e-03 -6.75951087e-05
      2.22247661e-04 2.40388908e-03 -1.73906490e-04 -2.40794173e-03
      1.21751812e-03 1.57855488e-02 -7.13404873e-03 -1.41938534e-02
      -9.11658183e-02 1.34376556e-01 -5.30284829e-02 -1.42085645e-02
      2.90571988e-01 -3.59833147e-03 -2.14414252e-03 1.56701114e-02
      9.30100232e-02 8.35349970e-03 6.32740697e-03 3.63502739e-04
      4.92067449e-03 1.39878364e-02 5.88447740e-03 7.54527608e-03
      5.28349914e-02 -1.00979589e-01 8.02917480e-02 -1.42123783e-02
      1.23578325e-01 -4.90699988e-03 2.30211392e-03 -1.43068600e-02
      4.48245704e-02 2.77168840e-01 9.83916223e-02 -1.06803828e-03
      6.04574867e-02 -9.59192887e-02 4.35848441e-03 -7.05018966e-03
      3.13837111e-01 -2.36239042e-02 -3.19247926e-03 1.08410232e-02
      -2.92308610e-02 -9.24223289e-03 -1.04226377e-02 1.17460350e-02
      -3.52998897e-02 2.16375720e-02 2.50096619e-03 2.46841763e-03
      1.13276010e-02 -1.95576660e-02 3.10401735e-03 2.12308136e-03
      9.37110111e-02 -1.47265000e-02 3.28358496e-03 -3.73885129e-03
      4.89093876e-03 -9.29387938e-03 0. -1.14201343e-04 -6.05672691e-03
      -8.48577842e-02 -1.07108084e-02 -5.84849296e-03 -1.43582746e-03
      -1.06104054e-02 -5.22179902e-03 -2.47155488e-01 3.04771103e-02
      1.60760747e-03 -1.84421719e-03 6.19972544e-03 5.21129183e-03
      -3.66675598e-03 -4.38025716e-04 1.21177337e-03 -2.92982836e-03
      1.65053632e-03 0. 0. 3.08775925e-03 -5.15279360e-03 3.97888107e-05
      -1.69927324e-03 -7.89713860e-03 -8.40487704e-03 1.64237747e-03
      -2.67029810e-03 -3.07863113e-04 -7.02119060e-03 0. -6.92383014e-03
      -6.88834582e-03 4.20540981e-02 -2.40624300e-03 -1.27309859e-02
      4.56716079e-04 4.80349176e-02 -7.14210980e-03 -6.04677945e-02
      5.30602001e-02 -9.24614538e-03 -2.64196598e-04 1.99541170e-03
      -1.73834746e-03 -6.27359189e-03 0. -3.29514407e-03 4.54991939e-04
      -9.87245329e-03 -1.62286661e-03 -3.03672190e-04 0. -1.56287814e-03
      5.36074986e-05 6.72121253e-03 1.42965205e-02 -1.73987485e-02
      3.13854869e-03 -8.12291226e-04 0. 0. 0. -2.75777304e-03
      -3.33010824e-03 -1.55329937e-04 -4.51003667e-03 1.63874379e-03
      2.74373707e-03 2.99373874e-04 5.06903220e-04 3.41107021e-03
      7.45478040e-03 -1.43066142e-02 -8.12205207e-03 -4.45160130e-03
      3.83484829e-03 5.54854050e-03 -1.62286661e-03 4.23665904e-03
      -1.03520288e-03 1.68024527e-03 -4.38063964e-03 -1.62286661e-03
      -8.02838651e-04 -1.55067840e-03 -1.43169181e-03 1.05870306e-03
      -1.20293805e-02 -6.32739067e-02 -1.23053696e-03 -6.04414800e-03
      -4.66632051e-03 -8.71662330e-03 -2.27572653e-03 -6.87308330e-03
      -1.02141378e-02 1.05070472e-01 4.58187936e-03 -5.17304102e-03
      -6.72642142e-03 -8.98372978e-02 -2.06862180e-03 1.02780182e-02
      5.78150935e-02 -2.18179543e-02 4.28459048e-02 2.75811693e-03
      7.69914091e-02 -1.10318360e-03 -7.03169405e-03 -1.54797814e-03
      -7.86488503e-02 -4.37487289e-02 2.29776721e-03 -2.41488251e-05
      8.67642276e-03 3.38519597e-03 -6.83100615e-03 2.14046129e-04
      -6.10772818e-02 5.73470024e-03 5.32705942e-03 -7.87827536e-04
      -4.16355673e-03 -3.86499031e-03 0. 0. -8.20491184e-03
      -1.27249369e-02 5.61758364e-03 -2.57939869e-03 2.11034250e-03
      -9.41599812e-03 3.80176440e-04 2.50959978e-03 4.39065769e-02
      -1.96055067e-03 8.22330359e-03 0. -5.83519042e-03 -7.30922632e-03
      0. -1.62286661e-03 1.56208430e-03 0. -9.20425344e-04 0. 0. 0.
      -1.29340868e-03 -1.09149970e-03 -8.41003377e-03 4.66942322e-03
      3.82934278e-03 -2.68218173e-05 -3.67219117e-03 2.26375391e-03
      -3.07856523e-03 -7.30211893e-03 6.73391344e-03 3.94127285e-03
      4.87449113e-03 -3.58381687e-04 8.34568776e-03 -3.00640590e-04
      -1.48046762e-03 -2.04349961e-03 4.51752506e-02 3.28053981e-02
      3.65028456e-02 3.67735093e-03 4.79122885e-02 2.66186846e-03
      -2.68796459e-03 4.89826081e-04 -1.99688468e-02 -1.16498219e-02
      -7.51880370e-03 0. -2.25092354e-03 2.41100905e-03 2.21366622e-03
      1.03030098e-03 4.08410840e-02 -2.93907220e-03 2.26413249e-03
      -1.01118395e-03 -7.19015312e-04 1.15928415e-04 -2.15569511e-03
      -3.03672190e-04 6.28831272e-04 1.00847166e-02 3.00726457e-03
      1.56744360e-03 5.76313410e-04 -7.25793978e-03 -6.42275624e-03
      3.33930971e-03 -5.84318079e-02 6.00338690e-02 -3.48398909e-02
      1.84656691e-03 2.38762841e-01 3.16275447e-03 3.19954520e-03
      1.50283810e-03 1.23884685e-01 1.20042926e-02 -6.30281959e-03
      4.72686777e-04 -3.64024960e-03 4.89227660e-03 8.04702286e-03
      7.33252475e-03 4.92909886e-02 -2.28633523e-01 9.86203551e-02
      -6.60043210e-03 1.01996705e-01 2.34469622e-02 -3.82650876e-03
      1.53514929e-02 2.48463284e-02 -3.77126634e-02 7.67866597e-02
      -1.54206017e-02 2.73785852e-02 3.82529311e-02 1.26408627e-02
      2.44875699e-02 3.40512455e-01 -7.10793361e-02 -1.27246801e-03
      1.48742497e-02 -2.39688568e-02 -1.19611900e-02 -1.99946831e-03
      -3.87740433e-02 -3.80479433e-02 -4.23231013e-02 -7.18694692e-03
      1.50978402e-03 4.84010624e-03 7.08019873e-03 -9.94084589e-03
      3.27780470e-02 1.20249696e-01 -1.13681210e-02 2.96063581e-03
      1.39935559e-03 4.56165057e-03 -3.86347063e-03 0. -3.29996110e-03
      -2.93981470e-03 -9.99840628e-03 -3.80587927e-03 7.05492310e-03
      6.32181764e-03 2.54816283e-02 7.58298207e-04 5.47403060e-02
      -5.31875975e-02 1.71744525e-02 -8.17574188e-03 -2.87167635e-03
      -8.47055670e-03 3.67607432e-03 -4.65782266e-03 5.55653824e-03
      -5.24644693e-03 -7.89233856e-03 -3.03672190e-04 0. 0.
      1.38481637e-03 0. 8.70136730e-03 7.77317211e-04 6.42509107e-03
      -1.27852848e-03 -2.74370159e-05 -8.94661527e-03 2.64910772e-03
      2.26662657e-03 -4.00807429e-03 2.03685253e-03 1.33112878e-01
      4.87348670e-03 -5.89611987e-03 2.99398624e-03 -4.53205407e-02
      -2.85213930e-03 3.06312926e-02 5.06290831e-02 2.43781274e-03
      -1.46715576e-03 5.87891601e-03 1.21292414e-03 -3.84181971e-04 0.
      -4.19983437e-04 1.05519546e-03 -1.38685685e-02 -4.45728097e-03 0.
      0. 2.58149987e-04 -3.07662012e-05 3.16259451e-04 1.55441463e-03
      -1.23967174e-02 0. 3.21973494e-05 0. -1.25772168e-03
      -1.66194851e-03 5.31940081e-04 -2.02483311e-03 -5.95799834e-03 0.
      -1.96341053e-03 -3.03672190e-04 6.34566601e-03 -1.66194851e-03
      5.80020598e-04 -5.39226737e-03 7.61572784e-03 5.69230993e-04
      3.93583253e-03 1.33185799e-03 -4.64018638e-04 -3.03672190e-04
      -2.74461322e-03 4.81282035e-03 -1.50098407e-03 2.48623290e-03
      -2.02162890e-03 -2.60083051e-03 -4.88205487e-03 -1.40318807e-05
      -4.48640576e-03 8.60035419e-03 -8.64411220e-02 -2.60083051e-03
      -1.51806194e-02 3.86582315e-03 -1.14868013e-02 0. 3.59989324e-04
      5.62094571e-03 -1.49379387e-01 -1.24975014e-02 -4.13028494e-04
      -5.68975287e-04 2.31729597e-02 -1.38323219e-03 1.26065016e-01
      6.81566224e-02 1.18317455e-03 3.35384309e-02 2.71636236e-04
      -1.50345266e-02 2.04656646e-02 1.89271267e-03 -4.14039940e-04
      3.17179151e-02 -5.58455437e-02 -1.78591942e-03 0. 1.18931197e-02
      -3.95439751e-03 -3.77862086e-03 -1.39105262e-03 2.59355783e-01
      -3.22486623e-03 6.57456054e-04 0. -2.65383464e-03 0.
      -1.13000837e-03 0. 2.05831248e-02 -9.34567023e-03 -2.57204124e-03
      -1.96562055e-03 7.56227178e-03 2.70493818e-03 -2.56863330e-03
      1.40501914e-04 -1.63548663e-02 6.21471321e-03 5.28419577e-03
      9.85978477e-05 -7.18782749e-03 -2.90450267e-03 0. -1.14666577e-03
      -1.51784392e-03 -2.41320231e-03 0. 0. -1.52927462e-03
      -2.56863330e-03 1.67343223e-05 -4.26277891e-03 8.56654253e-04
      -2.05531390e-03 6.32244302e-03 2.28267920e-04 -4.14062105e-03 0.
      -8.27648211e-04 0. 4.11307206e-03 -2.47796346e-02 7.77398515e-03
      -1.37261371e-03 -3.49574490e-03 -3.07888084e-04 -4.27447679e-03
      -4.77107911e-04 4.95312251e-02 -4.57106307e-02 1.88653395e-02
      -8.37757834e-04 -1.20603584e-01 -3.50039365e-04 2.79163389e-04
      -2.57103983e-03 -1.12997197e-01 -3.58458608e-02 6.73000840e-03 0.
      -4.18284582e-03 -2.42899335e-03 1.74117344e-03 6.67958579e-04
      3.42060439e-03 -3.05294571e-03 3.01537057e-03 0. 1.27934013e-03
      -1.43154827e-03 -2.33905812e-04 -5.92472730e-03 -2.27840953e-02
      4.87540988e-03 3.77411186e-03 -4.05370636e-04 -2.14739330e-03
      3.48840258e-03 -1.61042821e-03 1.44359353e-03 -8.35542846e-03
      1.66010141e-01 1.91656113e-01 6.44821767e-03 8.90410691e-02
      1.54243177e-02 3.08267772e-03 1.50083313e-02 2.60354038e-02
      1.29524618e-03 2.38006632e-03 0. 8.99155450e-04 8.25739093e-03
      3.07264202e-03 8.53915047e-03 4.28637490e-02 4.29965444e-02
      1.01156026e-01 -5.24759758e-03 3.14907916e-02 -3.69463372e-03
      -1.16068381e-03 -1.33904060e-02 1.86045300e-02 -1.13167845e-01
      7.38700032e-02 -4.05430235e-03 3.30595151e-02 1.35240508e-02
      9.45961569e-03 4.05400358e-02 2.40793452e-01 -1.81656376e-01
      -9.34368931e-03 -9.44908336e-02 -9.14737359e-02 -6.05241396e-03
      -1.53917097e-03 -1.05532095e-01 -7.03376010e-02 -1.31064793e-02
      6.09597005e-03 -1.69049501e-02 -3.57797346e-03 7.45696248e-03
      6.90616481e-03 4.38432992e-02 -2.34947149e-02 -6.12892583e-02
      -1.43827708e-03 6.97338255e-03 -1.90255567e-02 -1.22468201e-02
      -6.19005226e-03 -5.45348739e-03 -1.17417620e-02 -3.45801644e-04
      -1.13344407e-02 2.90976209e-03 5.03901028e-05 3.73497419e-02
      2.76848534e-03 7.62873515e-02 -4.08413634e-02 -1.40947113e-02
      -7.05487281e-03 1.28229149e-02 -2.04443056e-02 -1.66606382e-02 0.
      -2.60414202e-02 9.72003583e-03 -3.41363698e-02 0. 2.32692319e-03
      -1.95045734e-03 -1.79776922e-02 0. -6.15629042e-03 2.29671341e-03
      -5.38325459e-02 -1.04677537e-03 -6.46032440e-03 3.28627555e-03
      -1.03826430e-02 -5.75774768e-03 -6.86627161e-03 1.49096176e-02
      6.32543676e-03 6.39281992e-04 -3.26491892e-02 1.82416261e-04
      -2.06572160e-01 -1.42034832e-02 2.83404887e-01 7.88193420e-02
      -3.79083827e-02 1.54071557e-03 -3.49871144e-02 -2.13304274e-02
      -3.85689992e-03 -6.53953711e-03 1.15184961e-02 -8.68388638e-03
      -5.10818744e-03 -1.23270589e-03 -1.38869626e-03 -2.72272783e-03
      -2.07596342e-03 0. 9.23759956e-03 -6.41313521e-03 -2.08081976e-02
      -5.94310090e-03 1.70821231e-03 -2.25487421e-03 -2.64783506e-03
      -7.64608267e-04 0. -1.00501534e-03 1.92862737e-03 -6.19005226e-03
      0. -7.28696398e-03 -4.07170178e-03 -1.82352134e-03 -1.07385812e-03
      -5.15026413e-03 9.68047418e-03 -8.39955546e-03 -6.54308544e-03
      -6.21808181e-03 -4.92894929e-03 9.25804314e-04 -2.34211423e-03
      -8.46646167e-03 2.25435197e-02 0. 9.47872759e-04 -1.38545537e-03
      9.46337730e-03 -1.58311415e-03 -4.87772486e-04 -1.37664797e-02
      1.31971404e-01 -9.49941017e-03 -1.05382362e-02 5.83125046e-04
      -8.33178218e-03 -2.30717682e-03 -5.60489390e-03 1.97222102e-02
      -1.52077928e-01 1.94060057e-02 -1.22137265e-02 2.69207032e-03
      1.14389472e-01 4.75259870e-03 1.83444366e-01 6.66931570e-02
      -1.44701144e-02 1.47823906e-02 5.29592484e-03 -1.17207408e-01
      1.37635851e-02 -1.69008523e-02 -2.77597952e-04 6.43451437e-02
      -1.69700719e-02 -4.77382913e-03 2.77404161e-03 1.97117403e-03
      -5.66444732e-03 -2.15372629e-03 1.43042216e-02 -6.67155087e-02
      1.91005296e-03 1.15781277e-03 -1.51304848e-04 1.89160128e-04
      -1.58311415e-03 -6.43045921e-03 -5.79914544e-03 1.34956064e-02
      -6.41556457e-03 7.55776744e-03 -1.24646130e-03 1.67294573e-02
      -7.55128125e-03 6.45519793e-03 3.11049726e-03 -3.45173925e-02
      -1.34545304e-02 -9.75010823e-03 -4.79749357e-03 -4.12908383e-02
      -1.98148773e-03 2.00231746e-03 0. 6.45276299e-03 3.17073730e-03
      -7.64608267e-04 0. -3.55707924e-03 0. -1.30700145e-03 0.
      -9.34067369e-03 8.65745067e-04 -7.89468922e-03 -4.94445907e-03
      -9.31698177e-03 4.52051591e-03 0. -4.19181492e-03 -4.26663226e-03
      2.50003673e-03 9.11915675e-03 -7.80335220e-04 -9.05510038e-03
      -7.59409554e-03 -5.01420395e-03 -1.02771306e-02 2.72733681e-02
      -7.96508789e-02 -3.53768952e-02 -1.63927097e-02 -1.41695350e-01
      -8.57498776e-03 7.35182664e-04 1.61316339e-03 2.65353471e-02
      -2.90341657e-02 1.05671948e-02 -2.57039443e-03 -1.60699543e-02
      3.32875014e-03 -7.97407236e-03 -4.98168543e-03 -1.40919670e-01
      -6.00285642e-03 -3.32844537e-03 -4.25431877e-04 1.71082467e-02
      -3.89429647e-03 1.91029918e-03 3.48432292e-03 -8.84310529e-03
      -2.10001394e-02 -1.05717976e-04 -4.46241582e-04 -1.94406994e-02
      1.09022716e-02 7.07377028e-03 2.21340405e-03 -1.90918401e-01
      1.78634692e-02 -1.01169301e-02 -2.64188112e-03 -1.15528397e-01
      6.94148336e-03 -3.32329832e-02 2.09354032e-02 1.12708643e-01
      -1.16352560e-02 -6.21859729e-03 0. -1.83767860e-03 2.81579536e-03
      -7.47112464e-03 -6.69638254e-03 -3.38536464e-02 8.03248063e-02
      -1.40216589e-01 5.86866913e-03 -1.09414861e-01 2.40939227e-03
      -1.68539360e-02 1.99054414e-03 2.72019040e-02 1.34593546e-01
      6.90000411e-03 -1.57819781e-02 2.43258812e-02 6.59927353e-02
      7.55847525e-03 2.07415186e-02 1.79698110e-01 -4.98255715e-02
      8.87281029e-04 1.40526472e-02 3.83949727e-02 -1.12302843e-02
      -2.37797457e-03 -1.02245398e-02 3.63435745e-02 -2.90947128e-02
      -8.18913616e-03 -1.20302092e-03 -1.06237717e-02 3.88094187e-02
      1.27208477e-03 1.50365099e-01 8.66903588e-02 4.24980046e-03
      -1.57423818e-03 6.50727982e-03 3.38310405e-04 -1.14182103e-02
      6.53705327e-04 -5.66217490e-03 -7.21775182e-03 8.95626552e-04
      -1.64674828e-04 1.66641586e-02 -6.81641186e-03 -6.98830700e-04
      -2.94213393e-03 1.42107889e-01 1.17343523e-01 -3.32410075e-02
      -4.01713094e-03 -1.73452161e-02 4.41270007e-04 2.52664951e-03
      -9.23847198e-04 -4.14585462e-03 -2.14331783e-03 -1.60309789e-03
      1.35449308e-03 -1.33806444e-03 0. -4.05579014e-03 0.
      4.14501596e-03 -7.39837438e-03 -5.93251958e-02 -3.59384785e-03
      5.03056357e-03 7.90055655e-03 -8.99050618e-04 -3.16985133e-05
      -8.41223635e-03 2.17680889e-03 7.06881098e-03 -6.32983958e-03
      4.59288945e-03 4.78239206e-04 -3.77027765e-02 1.57633005e-03
      7.76471570e-03 2.41911709e-02 -1.16082290e-02 -5.59908152e-03
      7.55145375e-05 -1.84493823e-04 -3.25842761e-03 -1.52451114e-03
      -7.25367165e-04 4.04890627e-03 -1.66947488e-02 -2.50920421e-03
      -2.55392818e-03 -5.63747017e-03 -1.92412257e-03 0. 9.03545693e-03
      -1.64239835e-02 -1.20127797e-02 -3.16985133e-05 0. 0. 0.
      6.53705327e-04 6.37246296e-04 -1.31206447e-03 5.10232151e-03
      -1.67746271e-03 -1.35855412e-03 0. -2.73161335e-03 -2.77656922e-03
      3.23002110e-03 -8.75777565e-04 -8.36481079e-02 -1.17299734e-02
      -9.68444441e-03 -1.35047520e-02 3.00805829e-03 0. -1.98303885e-03
      2.18932889e-03 -4.03566053e-03 0. -5.19240217e-04 1.21977110e-03
      7.23771751e-03 1.24146638e-03 4.52425424e-03 -2.71337549e-03
      -4.85922862e-03 -1.90371857e-03 -4.57733031e-03 -6.27872860e-03
      -1.67956561e-04 0. 3.94215668e-03 2.48361204e-04 -1.44416347e-01
      -4.50500986e-03 5.68489311e-03 -2.41135899e-03 4.13158126e-02
      -6.82298632e-05 7.37706944e-02 5.37745915e-02 4.97160433e-03
      -3.90096195e-03 2.76978896e-03 1.46509245e-01 -2.23257346e-03
      4.13997099e-04 -7.57956970e-03 -2.51902118e-02 1.04551176e-02
      7.26352772e-03 0. -1.29786157e-03 -1.19026462e-02 -1.07574451e-03
      3.94514576e-03 1.42833874e-01 -5.37284836e-03 8.93470424e-04
      -2.67675007e-03 -3.41299316e-03 -2.83657573e-03 6.53705327e-04
      -1.31206447e-03 -5.24566974e-04 1.01901283e-02 -5.68339543e-04 0.
      2.16884352e-03 -2.30461569e-03 7.64137181e-03 -8.67834035e-03
      6.36936873e-02 -9.08783730e-03 8.75761174e-03 4.46976349e-03
      4.95722564e-03 0. 0. 0. 6.67648343e-03 0. -1.81863282e-03 0.
      -1.52451114e-03 7.53475761e-04 0. -2.80089444e-03 2.27761501e-03
      -6.93664094e-03 -1.42949261e-03 -8.01733055e-04 2.01295782e-03 0.
      -4.24298597e-03 -4.29437822e-03 -3.36168054e-03 9.47362557e-03
      -4.64276131e-03 -2.05057440e-03 1.43669527e-02 5.49963117e-03
      -5.68202091e-03 -7.36699253e-03 1.70734935e-02 2.58351117e-02
      1.52745778e-02 -5.08041354e-03 1.03654712e-01 7.88215268e-03
      5.27129276e-03 6.42632972e-03 8.60203803e-02 1.87924760e-03
      2.88205943e-03 1.37970340e-03 8.15566687e-04 -4.47856169e-03
      -7.31300912e-04 -3.50833382e-03 9.57165584e-02 -1.59087349e-02
      -4.68996167e-03 -4.54415428e-03 -4.75158589e-03 0. -1.33930682e-03
      -3.39398306e-04 -2.43106880e-03 -9.00967512e-03 5.23766968e-03
      1.08103012e-03 -3.91233061e-03 -9.54518560e-04 -1.50937159e-02
      5.45087690e-03 2.29064096e-02 -2.70954482e-02 -1.71919107e-01
      -1.48629779e-02 2.60374725e-01 4.45750775e-03 1.35424710e-03
      3.30110430e-03 8.45326930e-02 7.76999921e-04 -3.84496932e-04
      6.83284597e-04 -1.94904197e-03 -5.26475487e-03 -6.43921597e-03
      3.41566722e-03 4.02837619e-02 6.43615276e-02 -1.97160896e-02
      -9.13354941e-03 1.23492908e-02 -1.44394143e-02 -1.17274718e-02
      -5.54710068e-03 5.84303476e-02 6.46620467e-02 -1.52028408e-02
      -1.18498933e-02 -7.91918021e-03 -2.02969015e-02 -1.17688868e-02
      1.43874213e-02 3.58196020e-01 9.33236908e-03 8.12090375e-03
      3.19693759e-02 7.15700118e-03 1.09168496e-02 -5.53681806e-04
      3.44642922e-02 6.39631227e-02 3.12591717e-02 1.53045193e-03
      8.06749612e-03 7.39288516e-03 3.89676802e-02 2.62880535e-03
      1.19972564e-01 -5.58635145e-02 1.28596937e-02 -3.14826408e-04
      6.77473471e-03 6.99373544e-04 -1.55744678e-03 0. 0. 7.16181332e-03
      -9.44676716e-03 4.90546110e-04 2.26404089e-02 4.86653438e-03
      1.93840135e-02 4.17684577e-03 -9.15187150e-02 -1.40483230e-02
      -4.50513279e-03 1.41513180e-02 1.78032275e-03 2.64790049e-03
      -1.89015677e-03 -2.44287564e-03 1.21963141e-03 3.83191812e-03
      9.35938861e-03 -2.42966489e-04 0. 0. 1.12871767e-03 0.
      -7.25158141e-04 -5.66096336e-04 -4.19999808e-02 -4.90464456e-03
      -4.93954960e-03 -2.56536133e-03 -2.55712215e-03 4.18764044e-04
      2.27491674e-03 -4.93671454e-04 1.47558764e-01 9.60525684e-03
      -3.47543100e-04 -9.86324623e-03 -1.56275228e-01 -2.25405418e-03
      -4.15620916e-02 7.76960924e-02 -1.75326671e-02 -9.56435502e-03
      2.47652316e-03 3.89343943e-03 6.53950963e-04 -2.39566038e-03
      2.72006937e-03 -1.90667796e-03 -1.45927828e-03 7.61255505e-04
      -8.36722029e-04 -2.74751015e-04 2.93926569e-03 -2.27572653e-03
      1.54986163e-04 -8.83895438e-04 -2.56604161e-02 0. -8.01733055e-04
      0. 0. -2.39566038e-03 0. 0. -6.36558468e-03 -2.27572653e-03 0.
      -7.07749918e-04 2.18983972e-03 -2.27572653e-03 2.90801656e-03
      5.28685795e-03 -5.82198985e-02 -9.13680065e-03 -9.13505501e-04 0.
      1.49812666e-03 -1.32489216e-03 -2.54364350e-05 3.25337262e-03
      1.05192130e-02 -2.27572653e-03 -1.44401134e-03 5.96800644e-04
      -4.89376765e-03 4.60193878e-05 5.76961320e-04 -1.63742609e-03
      -1.07843570e-01 -6.74635591e-03 -1.10323466e-02 -1.10600807e-03
      -6.26124116e-03 4.07201769e-05 -3.15902266e-03 2.53388076e-03
      -1.87716097e-01 -3.46101471e-03 -1.65634863e-02 -8.31617322e-03
      7.84879103e-02 -5.93634415e-03 8.14289600e-02 7.58117065e-02
      1.12315137e-02 7.10239308e-03 -1.75866345e-03 1.42010570e-01
      4.19682218e-03 -1.47084775e-03 4.96387761e-03 2.62370594e-02
      4.24476154e-03 -1.12026660e-02 5.06048556e-04 2.50407704e-03
      4.51370189e-03 2.15898198e-03 6.94798445e-03 1.08764008e-01
      -6.21280260e-03 -4.94903652e-04 1.72463420e-03 6.10359339e-03
      5.06048556e-04 0. 0. 2.60746386e-03 -5.74446470e-03 2.60240887e-03
      0. 5.52140300e-05 5.97632583e-03 2.61467323e-03 2.26111012e-03
      4.92648892e-02 -2.34948881e-02 2.82587707e-02 7.87129975e-04
      -4.03230730e-03 0. 0. -2.27572653e-03 5.27550653e-03
      2.49084178e-03 -3.85329849e-03 0. 3.36465193e-04 0.
      -3.22770939e-04 0. 7.91793875e-03 -2.06560660e-02 2.19922373e-03
      -2.60100933e-04 8.64363927e-03 -3.78520973e-03 0. -1.27887272e-03
      1.96323870e-03 -1.84223447e-02 8.60638451e-04 -3.40915029e-03
      2.80076801e-03 6.76484546e-03 -1.94875128e-03 -9.49354377e-03
      3.49197015e-02 3.73584358e-03 7.96296746e-02 -3.44865001e-03
      -7.16614947e-02 1.49068970e-03 2.12310418e-03 -1.62556337e-03
      -3.55344228e-02 6.64591230e-03 -2.26007542e-04 -8.28432851e-04
      -1.83363212e-03 -4.54069581e-03 -3.30075552e-03 -9.49469744e-04
      1.20792948e-01 -1.20113986e-02 -7.04313628e-03 0. -5.56029030e-04
      -1.32489216e-03 0. 0. 6.64934842e-03 -1.16337286e-02
      2.84086517e-03 -1.13939634e-03 -4.88437386e-03 -1.82467490e-03
      2.35968689e-03 4.09565354e-03 3.61636057e-02 -9.77348611e-02
      3.92573550e-02 -8.57357774e-03 3.02645918e-02 2.45423405e-03
      1.72289158e-03 7.59151578e-03 4.72024307e-02 -2.27613077e-02
      -7.61653995e-03 -3.82863986e-03 -9.81009007e-03 8.52015987e-03
      -2.89597036e-03 9.90458298e-04 5.21119200e-02 -2.81913638e-01
      -2.62214482e-01 -3.48727107e-02 3.95914540e-02 -8.15732684e-03
      5.50949201e-03 4.55861585e-03 2.34921686e-02 -2.53119797e-01
      -9.30969268e-02 -5.29214554e-02 -1.69230588e-02 -1.37256673e-02
      -2.39817612e-02 -8.43523629e-03 9.49743316e-02 1.84807871e-02
      9.71956179e-03 5.06259277e-02 2.25790255e-02 1.23258410e-02
      2.80716643e-03 4.01097536e-02 7.20022842e-02 2.49252673e-02
      2.02385694e-04 8.53103399e-03 6.68505440e-03 5.05176261e-02
      2.05735187e-03 6.76821768e-02 6.52624741e-02 -2.86948830e-02
      -1.36852483e-04 4.47623152e-03 7.45281065e-03 -7.43113807e-04
      -3.64926673e-04 -1.32272847e-03 -2.86531495e-03 -1.18833932e-03
      3.32074123e-03 6.23006560e-03 3.30601679e-03 5.79749346e-02
      -7.92770926e-03 -9.79000255e-02 4.76866066e-02 -6.70205103e-03
      1.76892360e-03 -2.42913840e-03 6.75514806e-04 -4.25946619e-03
      9.20387756e-05 1.88222528e-03 6.32057083e-04 -3.91333736e-03
      -1.44906959e-03 2.30639016e-05 0. 1.28984330e-02 0. 5.81948739e-03
      1.15045058e-02 -7.01206699e-02 -2.10575270e-03 -5.67928515e-03
      1.51724066e-03 -3.36437928e-03 8.95899138e-04 1.02766755e-03
      8.70971242e-04 1.97774731e-02 1.06046675e-03 -1.80969655e-03
      4.20517707e-03 -7.25124851e-02 9.71087778e-04 3.27865081e-03
      6.55278414e-02 2.25064554e-03 -3.77757853e-04 2.50868662e-03
      4.54205181e-03 1.28968852e-03 0. 6.67600427e-03 -2.97776866e-03
      -1.72207411e-02 -5.08759695e-04 5.30972437e-04 -7.58575567e-04
      6.01794943e-03 0. -2.99930689e-03 6.99804211e-03 -9.31539107e-03
      -2.18536821e-03 9.20387756e-05 7.02127989e-04 1.84077551e-04
      9.20387756e-05 0. -7.58575567e-04 -1.18420022e-02 -1.93495653e-03
      -3.21240426e-04 -1.93495653e-03 -9.84137296e-04 0. -1.93449785e-03
      7.77197583e-03 -8.71510897e-03 -4.04517259e-03 -3.01585812e-03
      1.24776154e-03 6.60255738e-03 0. -2.28621252e-03 1.17386284e-03
      -1.80414598e-02 0. 1.38269004e-03 2.34884256e-03 5.41673217e-04
      9.20387756e-05 1.30153103e-02 -1.71287684e-03 -1.00897536e-01
      5.86684655e-05 -7.81682134e-03 4.59890405e-04 -1.55046275e-02
      -5.64475959e-05 -6.74955593e-03 -4.56890231e-03 -2.43313000e-01
      -6.42061373e-03 -3.09137460e-02 -3.15210060e-03 3.18755098e-02
      -1.05899188e-03 2.91403066e-02 -2.07222230e-03 3.24461758e-02
      5.70130236e-02 1.35614444e-02 9.47554410e-02 -4.44554549e-04
      9.20387756e-05 1.59776080e-02 4.16022278e-02 1.69783868e-02
      1.11163955e-03 0. 1.10176252e-02 6.53824909e-03 -5.34507120e-03
      1.18386736e-02 1.57133207e-01 -1.59006137e-02 2.04915996e-03 0.
      4.81817313e-03 0. 0. 2.09211628e-03 2.60428269e-03 -1.76537957e-03
      -2.59279180e-03 0. 4.87123290e-03 -6.22802693e-03 1.49466598e-03
      7.45745562e-03 7.81148747e-02 5.00807492e-03 7.03354832e-03
      4.23097343e-04 5.57636470e-03 -1.57565507e-03 -1.84291776e-03
      9.20387756e-05 4.67330450e-03 7.91127561e-04 9.20387756e-05 0. 0.
      0. 0. 0. 3.82568757e-03 -1.30901523e-02 3.93748312e-04
      -2.64120521e-03 9.03432537e-03 -5.69480006e-03 7.02127989e-04
      -1.44240458e-03 7.65702513e-04 -7.92307127e-03 3.34052579e-03
      -2.26891506e-03 1.09336106e-02 -3.13317939e-03 -4.50697728e-03
      -7.93707906e-04 2.65862867e-02 2.47152392e-02 6.47785142e-02
      1.16177127e-02 -1.90251470e-02 4.22033574e-03 8.76817619e-04
      1.58321625e-03 7.04481974e-02 5.68530348e-04 5.54613816e-03
      -7.58575567e-04 5.52735338e-03 -3.12775839e-03 2.99274479e-03
      2.40823661e-04 4.10664417e-02 -9.76690836e-03 1.81766076e-03
      1.15023018e-03 2.84437672e-03 0. 0. 0. 8.03002995e-03
      -3.03178997e-04 1.23124907e-03 -1.54110836e-03 1.35857435e-02
      5.35005471e-03 8.40147119e-03 -1.39057811e-03 3.47238332e-02
      -2.86301114e-02 7.60907307e-04 2.34977412e-03 1.26795128e-01
      4.51366883e-03 1.58100687e-02 7.57996412e-03 6.32887632e-02
      -8.18075333e-03 -5.43018989e-03 -1.84291776e-03 6.60952972e-03
      3.67043959e-03 -9.86631610e-04 2.02983106e-03 2.50265449e-02
      -1.34915203e-01 -6.29739836e-03 -9.00533516e-03 9.15137902e-02
      -1.94837973e-02 6.02563517e-03 1.64826098e-03 3.09006609e-02
      -2.55505025e-01 -7.81076588e-03 -3.86932418e-02 -1.29948705e-02
      -6.29326329e-02 -3.74102034e-02 -4.50829156e-02 1.72535598e-01
      2.34507560e-03 -1.81427877e-02 -1.91116035e-02 4.47345674e-02
      1.62135181e-03 0. 7.23294467e-02 4.03547511e-02 2.41074786e-02
      1.19237893e-03 2.80256127e-03 2.06310488e-03 3.32813747e-02
      3.37607972e-03 1.88723505e-01 1.76060155e-01 -9.27681010e-03
      -4.16951859e-03 -4.86219348e-03 -2.12346582e-04 -7.35468185e-03 0.
      -3.14542581e-03 1.26513862e-03 -2.71307752e-02 -4.59978776e-03
      -1.61403082e-02 5.89777762e-03 9.03025717e-02 -6.22084830e-03
      -3.65136787e-02 7.28130639e-02 1.75169166e-02 -3.74609535e-03
      -1.65026803e-02 -2.33732699e-03 1.41812414e-02 9.92699410e-04
      -1.41474139e-03 1.03486320e-02 -1.48610640e-02 -1.36731903e-03
      -1.35948102e-03 0. -1.81045942e-02 -1.61751593e-03 -2.92142807e-03
      1.46549782e-02 -3.36452499e-02 -1.84639206e-03 1.68551356e-02
      -5.04329975e-04 -1.51775004e-02 0. -7.34132715e-03 -2.20355508e-03
      -1.39811069e-01 1.78905053e-03 -1.01834191e-02 2.15628557e-02
      -3.26328754e-01 -7.13379355e-03 -9.46042687e-03 4.02464122e-02
      -5.84175577e-03 -3.45173851e-03 1.78831955e-03 2.86070909e-03
      -6.86167181e-03 0. -3.76230362e-03 -6.18905993e-03 2.25721757e-04
      0. 4.80809808e-03 0. 3.10804509e-03 1.01209711e-03 3.94749874e-03
      7.36696972e-03 -1.19904876e-02 0. -2.58720503e-03 0.
      -9.12659627e-04 0. 0. 1.12556436e-05 -1.49378376e-02 0.
      8.89170842e-05 0. -1.30335335e-02 3.28512373e-03 3.65443039e-03
      4.15584631e-03 -1.83345042e-02 -8.26466922e-03 -2.85926443e-02
      -2.12922762e-03 -3.36488965e-03 -3.03672190e-04 7.17538362e-03
      7.35276472e-03 -2.71200505e-03 0. -6.38595724e-04 9.45671287e-04
      8.00736423e-04 1.00577978e-04 2.39547202e-03 -7.18000636e-04
      2.66951472e-02 -7.58999609e-04 1.31963296e-02 -3.09527083e-03
      -4.12614318e-03 4.44325087e-05 1.13128591e-03 1.69729791e-03
      -1.45360641e-02 -2.75768433e-03 -1.98529735e-02 -7.48478575e-03
      6.82563707e-03 -5.61110815e-03 4.22245748e-02 4.28538973e-04
      1.06386999e-02 1.75139830e-02 1.27879623e-02 1.50169611e-01
      4.38288553e-03 -2.51341006e-03 2.09911689e-02 8.94762948e-02
      1.17176492e-02 -1.19740190e-03 -3.03672190e-04 -2.03519478e-03
      2.27834098e-03 4.93111135e-03 1.77252723e-03 3.60215344e-02
      -1.14133423e-02 3.19675612e-03 -4.39694384e-03 1.01707773e-02
      -3.13597964e-03 -8.45093338e-04 4.19541248e-05 4.57637757e-03
      7.43454974e-03 4.02804231e-03 4.55089565e-03 7.12378277e-03
      1.40208313e-02 3.55061283e-03 -1.34542084e-03 7.01124445e-02
      -8.27129092e-03 -9.09798220e-03 1.01209711e-03 -1.07722534e-02
      -1.14876544e-03 0. 0. 2.72809993e-03 -1.48642430e-04
      -1.54999166e-03 -3.03672190e-04 -1.16005307e-04 0. 1.60734297e-03
      1.87575701e-03 -6.65519014e-03 6.19090814e-03 5.83234709e-03
      -3.67740076e-03 -5.69131877e-03 9.45671287e-04 0. 3.94355133e-03
      1.43756333e-03 -1.03760175e-02 -3.94735159e-03 -2.26929272e-03
      9.46165156e-03 3.39309126e-03 -8.61397572e-03 -3.43861408e-03
      4.61625941e-02 1.33198278e-03 4.05528061e-02 3.96359339e-03
      -1.36633724e-01 7.36443652e-03 1.45393901e-03 4.53595258e-03
      -6.52825758e-02 -3.09283240e-03 8.72930232e-03 -8.45093338e-04
      -5.00009349e-03 3.76278069e-03 -3.35055566e-03 -8.99121817e-03
      3.35217379e-02 -6.75984332e-03 -5.06800599e-03 1.40859047e-03
      9.29608883e-04 0. -2.13623466e-03 -5.29025740e-04 2.93215923e-03
      -1.95469218e-03 -6.84472406e-03 -5.84116997e-03 2.02629040e-03
      -1.88359770e-03 -3.42276413e-03 -8.75206664e-04 2.86960993e-02
      3.83623615e-02 1.13931345e-02 -9.52221733e-03 -4.05836925e-02
      -4.51321853e-03 -2.75032799e-04 -2.07095430e-03 3.72399352e-02
      -9.46864579e-03 -3.89067060e-03 1.35410402e-03 -1.21824089e-02
      -5.31083904e-03 -5.35015133e-04 -8.47309642e-03 -1.00805918e-02
      2.61181351e-02 5.99541180e-02 -4.91781440e-03 9.43014584e-03
      -2.71523860e-03 -9.08472762e-03 -5.16377063e-03 2.91171465e-02
      6.91991225e-02 -3.27907363e-03 -4.47771652e-03 1.44047970e-02
      6.66442662e-02 2.31965724e-02 -3.98682244e-02 -4.78477143e-02
      7.32336380e-03 -1.25245638e-02 -3.79502214e-02 -1.44625800e-02
      -1.40327578e-02 1.28522783e-03 3.44483517e-02 2.63231155e-02
      -7.18522631e-03 -2.30552032e-05 -8.75796005e-03 8.18382949e-03
      -1.21596199e-03 -5.50823985e-03 -9.04352032e-03 1.05023431e-02
      4.98057017e-03 -1.32173963e-03 5.30826300e-03 6.62518572e-03
      -6.03168178e-03 -2.62262329e-04 0. 4.79703210e-03 2.64808908e-03
      -8.07397533e-03 1.54736619e-02 2.70375307e-03 -2.20036991e-02
      -8.27618223e-03 -1.11470250e-02 1.38666527e-02 -5.31983338e-02
      5.43030212e-03 -3.14327106e-02 -1.40319373e-02 -7.28146639e-04 0.
      -3.37563618e-03 -4.21113474e-03 1.25825051e-02 1.33662380e-03
      -1.62953464e-03 -1.01849018e-03 -1.46072055e-03 -2.26234831e-03
      6.10434311e-03 -8.67044367e-03 -2.00738404e-02 4.94879996e-03
      -5.08412253e-03 -1.17949338e-03 -5.35517931e-03 0. -1.20831337e-02
      -9.42102354e-03 7.16871172e-02 6.91702310e-03 -1.82729540e-03
      7.01055909e-03 4.31703590e-02 -1.48461228e-02 -5.62955299e-03
      -2.52528489e-02 -2.54174508e-02 -1.40679562e-02 -2.99938489e-02
      -6.04845956e-03 6.69974275e-03 1.21260714e-03 -5.93167683e-03
      1.24391296e-03 -7.15174852e-03 2.15767580e-03 -1.03871780e-03
      -5.75251132e-03 1.80092815e-03 0. 2.05176277e-03 2.93753255e-04
      -2.04598019e-03 -2.91646575e-03 0. 1.21260714e-03 0.
      1.06388016e-03 5.68065967e-04 -3.05719953e-03 -7.07369391e-03 0.
      0. 4.39185882e-04 3.48694413e-03 0. 2.00328929e-03 -1.08131906e-02
      -1.70931350e-02 -1.24282744e-02 -2.00639460e-02 -2.72284797e-03
      -1.91063655e-03 -6.72939513e-03 7.44764460e-03 9.00242652e-04
      -5.06480923e-03 8.01617862e-04 1.47486944e-03 -9.02088708e-04
      -9.40498649e-05 0. 4.80029266e-03 2.13361299e-03 -1.69776811e-03
      -5.88227855e-03 4.26153699e-03 2.63082306e-03 -5.43635199e-03 0.
      1.66920538e-03 3.80556425e-03 -1.12107038e-01 -1.10919112e-02
      1.23988306e-02 -4.36395733e-03 1.89896282e-02 -1.42255407e-02
      2.96956114e-02 -5.01364376e-03 3.28550045e-03 -2.22534928e-02
      1.80906814e-03 4.81557772e-02 9.45729855e-03 5.49895829e-03
      3.17531638e-03 1.19106285e-01 -2.06432934e-03 -1.16023375e-02
      6.25262619e-04 -7.04935659e-03 1.15109915e-02 -7.70460302e-03
      -1.11931562e-02 -7.98071697e-02 -2.87180068e-03 -5.01383375e-03
      -3.86205642e-03 7.93111604e-03 7.74010143e-04 -8.37066735e-04 0.
      1.92000985e-03 -8.57483363e-04 -2.61337426e-03 -2.79493700e-03
      -6.46457821e-03 2.95062060e-03 2.54568947e-03 -4.25221119e-03
      -2.59481687e-02 -5.50130894e-03 1.29910791e-02 -6.97155437e-03
      4.60972404e-03 0. 1.22866721e-03 0. -8.64738598e-03 6.64287771e-04
      -6.41281149e-05 0. 6.77052012e-04 0. -3.93405091e-03
      -1.82058127e-03 -7.78461923e-04 -1.52232684e-02 -3.53390700e-03
      2.06071767e-03 -1.43186830e-03 0. -4.24944097e-03 -2.11788504e-03
      1.09243707e-03 9.12544131e-03 -3.90195684e-03 -1.16350784e-04
      3.99332400e-03 -2.07154290e-03 -6.77958457e-03 -1.29992552e-02
      -1.00680487e-02 -5.05600087e-02 -6.73620552e-02 -6.14111731e-03
      -3.53183120e-01 2.88922735e-03 -5.86241425e-04 3.82367219e-03
      8.20782259e-02 2.84860772e-03 -1.42219700e-02 -8.37066735e-04
      -6.84991945e-03 -1.11839585e-02 5.15963533e-04 1.03617236e-02
      -2.55435612e-02 2.62886332e-03 -4.20864159e-03 -1.24967867e-03
      4.38008085e-03 1.45106215e-03 2.93349242e-03 -1.07045157e-03
      -1.18679218e-02 3.57445888e-03 1.01386458e-02 -1.43555121e-03
      -7.19099407e-05 -2.96274875e-03 -1.05332220e-02 4.78945643e-04
      -4.78851050e-02 -9.86344591e-02 -4.73531298e-02 -3.46850157e-02
      -1.10869892e-01 -6.42425241e-03 -5.31529309e-04 -4.07908019e-03
      3.63724306e-02 -8.91010091e-03 -1.97071731e-02 5.38818957e-03
      -1.58318430e-02 6.61541289e-03 1.28934300e-03 -4.53232136e-03
      1.17163789e-02 -1.22483328e-01 -5.73492944e-02 1.57288313e-02
      -5.62473200e-02 -6.33912580e-03 1.40889119e-02 2.76339566e-03
      -1.23846391e-03 -1.08120307e-01 -3.29493545e-02 -2.07774411e-03
      5.97329950e-03 1.11504920e-01 2.36554723e-02 1.98472459e-02
      1.12746008e-01 9.19556320e-02 8.64318936e-05 2.36612409e-02
      5.39488941e-02 1.59123205e-02 1.87712809e-04 1.28848599e-02
      -4.31038934e-04 7.36915171e-02 2.81784777e-03 4.29757033e-03
      1.23680746e-02 2.40094569e-02 -2.07710033e-03 1.52503878e-01
      1.54211193e-01 3.08234915e-02 -3.81064625e-03 -2.23935838e-03
      -4.37500002e-03 0. -4.33966838e-04 -2.53380206e-03 2.55122106e-03
      3.64878699e-02 -4.89346625e-04 -2.17643869e-03 9.56778228e-03
      9.18313861e-02 -1.23922131e-03 7.48661458e-02 2.14733905e-03
      3.39934677e-02 -7.60421064e-03 -8.08558986e-03 7.19722419e-04
      -1.03195850e-03 1.43171419e-04 5.61073050e-03 -2.09582085e-03
      1.68437581e-03 7.15857095e-05 4.76708310e-03 0. 1.84666421e-02
      7.15857095e-05 -2.05041259e-03 2.25107744e-03 -3.24344775e-03
      6.95952354e-03 3.31413648e-05 -8.10398797e-06 5.46228047e-03
      1.07288477e-03 8.75804981e-04 9.32736136e-03 1.10316724e-01
      6.68518012e-03 8.27392377e-03 -5.02552744e-03 -7.58079113e-03
      2.75339577e-02 1.28725544e-01 6.20242096e-02 1.76477786e-02
      -1.96401658e-03 6.87622838e-03 -2.08797259e-03 -1.56311225e-03 0.
      5.44104865e-03 1.28300926e-02 -1.65645604e-03 -1.77095074e-03
      -1.60689291e-03 0. 1.94107508e-03 0. 9.42420401e-03 2.61856185e-04
      -4.26740991e-03 -4.33966838e-04 -4.33966838e-04 -9.49223933e-04
      7.15857095e-05 5.67332143e-04 0. 0. 8.83428939e-03 -2.20491760e-03
      1.73686934e-03 6.29311835e-05 1.48582342e-03 -4.35854563e-05
      8.38059466e-03 7.67578278e-03 5.83177917e-02 -5.29512670e-03
      -3.16824275e-03 3.13506019e-03 9.24359914e-03 0. 3.46577517e-03
      -9.33028385e-03 -1.60172826e-03 -7.96682108e-03 2.75423680e-03
      -4.23124200e-03 -3.25360941e-03 0. -3.64298536e-03 -6.48913439e-03
      5.85465226e-03 6.42863428e-03 -1.06619671e-02 5.35281422e-03
      -1.38986961e-03 0. 2.47387984e-03 7.17440294e-03 -1.19921111e-01
      8.69657379e-03 -1.72479991e-02 7.42154010e-03 2.85016522e-02
      1.66504607e-02 9.69451889e-02 4.43057269e-02 8.02183989e-03
      7.05239084e-03 1.28463302e-02 2.20451236e-01 1.25736091e-02
      -5.38207730e-03 -1.37227541e-02 1.82644859e-01 3.21365558e-02
      -1.02268835e-03 0. 5.36898104e-03 2.11824616e-03 -6.40812982e-03
      9.13856365e-03 2.20664263e-01 3.98741802e-03 -1.24606118e-03
      7.15857095e-05 -7.53799640e-03 0. 0. 1.00129901e-03 1.76091325e-02
      -2.87178205e-03 -6.61684573e-03 0. -1.96578843e-03 3.62287671e-03
      9.12035536e-03 1.86749233e-03 3.40352431e-02 -1.55743714e-02
      -4.38272441e-03 -1.69618826e-04 -7.23110978e-03 5.14282333e-03
      5.08044660e-03 1.00129901e-03 -7.99743272e-03 -1.79883314e-03
      -1.76753174e-03 3.26844188e-03 7.15857095e-05 5.24034351e-03
      4.79002163e-04 -1.45113200e-03 -4.59362101e-03 1.72475670e-02
      -4.63585509e-03 -5.48084686e-03 1.06994947e-02 -4.33966838e-04
      -4.33966838e-04 -1.77095074e-03 3.63990082e-03 -1.36123272e-02
      -1.18614954e-03 5.19608788e-04 -1.77050277e-03 5.73171396e-03
      9.38452687e-03 -7.99793564e-03 -5.66114206e-04 -8.04470014e-03
      -1.74975190e-02 1.58372466e-02 -4.71995771e-02 3.81675013e-03
      1.03073372e-02 1.14871154e-03 1.95311576e-01 1.47915760e-03
      -5.04212920e-03 -1.02492142e-03 4.88035334e-03 8.80153943e-03
      1.54711551e-03 1.11951223e-02 8.74784291e-02 7.24132126e-03
      8.29671603e-03 -1.34329288e-03 1.92896626e-03 0. -5.03074331e-03
      -1.96742499e-03 9.28558316e-03 -6.66134665e-03 -2.64715357e-03
      2.24834564e-03 1.47160292e-02 4.02869750e-03 2.40418524e-03
      8.24807212e-03 5.81936091e-02 -1.47969633e-01 1.14930589e-02
      -3.12807295e-03 -9.70043167e-02 -6.23001397e-05 -1.81465931e-02
      -2.26784637e-03 7.23923743e-02 1.29835475e-02 -6.19055331e-03
      -2.19554594e-03 -4.70137130e-03 1.02487039e-02 1.28428293e-02
      -2.32940842e-03 7.88535178e-02 -1.36737734e-01 -9.33795795e-02
      -1.26299355e-02 -4.77753766e-03 2.51096231e-03 4.98407986e-03
      -1.30084371e-02 2.80294456e-02 -2.16106519e-01 -3.47072668e-02
      -6.17041392e-03 1.26457056e-02 6.42568469e-02 5.26153706e-02
      2.74447519e-02 2.02255454e-02 -1.25266910e-02 2.20612958e-02
      2.90242117e-02 3.91240902e-02 4.93877195e-03 2.50824308e-03
      5.68257011e-02 9.98403784e-03 3.55576128e-02 -3.98571650e-03
      -1.64020364e-03 2.62109935e-03 7.55422795e-03 8.54932703e-04
      1.03121988e-01 1.73536897e-01 -3.99714038e-02 8.46245140e-03
      -4.08349745e-03 1.32025941e-03 -3.87868262e-03 -2.76132813e-03
      -8.32790788e-03 8.93654209e-03 1.24926837e-02 5.64280199e-03
      2.19624415e-02 -1.10037848e-02 -1.96728893e-02 -4.93905798e-04
      6.33192062e-02 7.16773495e-02 -1.49774915e-02 4.23018588e-03
      4.03615553e-03 1.11882808e-02 -7.07061670e-04 0. 2.53575551e-03
      4.44867968e-04 5.13215270e-03 -2.03692209e-04 -6.95448893e-04 0.
      -2.30614492e-03 -5.37514314e-03 -1.27611449e-02 -7.18743727e-03
      -6.01634244e-03 -1.08120553e-02 2.11677980e-03 4.61265445e-03
      -8.22106097e-03 0. -6.25235122e-03 -2.55644060e-04 -6.43699840e-02
      -1.98206771e-02 -5.46619343e-03 7.44660664e-03 -5.55419438e-02
      1.91334821e-03 2.09696546e-01 9.33324471e-02 3.22388532e-03
      3.21097090e-04 -4.48860042e-03 9.00559884e-04 -4.07976004e-05
      3.91868362e-03 3.70523077e-03 7.57510494e-03 -1.25861438e-02
      -2.13793386e-03 -1.63990853e-03 -1.17816031e-03 1.39649014e-03 0.
      5.46264928e-03 9.40339454e-03 -1.62443817e-02 -1.77095074e-03
      2.62526970e-04 0. -1.60156912e-03 0. -5.36125153e-04
      -4.60884534e-04 -1.55793186e-02 0. -1.04768400e-03 -1.10625406e-03
      -4.14706068e-03 3.91868362e-03 -5.97387925e-03 -7.82642793e-03
      4.98736911e-02 1.95729081e-03 -1.87285827e-03 -8.43133777e-04
      -4.66501893e-04 0. 5.13683585e-03 3.48144234e-03 1.14624342e-02
      4.55089565e-03 0. 0. 3.87791311e-03 2.83480412e-03 1.20697161e-02
      3.74981877e-03 -7.55108148e-02 4.06276295e-03 -3.59086646e-03
      -4.10718285e-03 -1.02252662e-02 -2.73895334e-03 5.63874701e-03
      -4.32566740e-04 -6.62905052e-02 -2.05755979e-02 -1.81957949e-02
      -1.72795430e-02 -3.66676156e-03 -1.02669196e-02 3.26510146e-02
      2.15726588e-02 7.10492861e-03 -2.04662401e-02 3.76412552e-03
      3.50928381e-02 -1.12304348e-03 3.27518163e-03 1.35755064e-02
      -1.77909657e-01 4.97351168e-03 -3.99062457e-03 2.74715276e-04
      -1.35757951e-02 1.67685794e-03 -1.18563082e-02 -3.26348632e-03
      5.55739067e-02 5.65206958e-03 5.84646827e-03 -2.48363568e-03
      -4.86982754e-03 -5.98965725e-03 0. 7.39036652e-04 -6.17350219e-03
      -1.27162887e-02 -3.44262971e-03 -4.98458743e-03 4.77808202e-03
      3.47643928e-03 -1.75413399e-04 -3.07525625e-04 8.92726630e-02
      8.28165747e-03 5.65187261e-03 1.27785432e-03 2.32293340e-03
      -5.62741002e-03 3.91868362e-03 0. 1.23042492e-02 -9.50826041e-04
      -2.49512796e-03 0. -9.61973710e-05 -1.63990853e-03 1.40132371e-03
      -1.77095074e-03 6.89700712e-03 2.04694849e-02 1.22888887e-03
      -3.37469717e-03 3.98389855e-03 -2.73680012e-03 -1.73478853e-03
      -1.08387938e-03 -1.39391031e-02 -6.52410462e-03 -5.47186879e-04
      -4.39402740e-03 -1.14446478e-02 -1.36137605e-02 -4.51568887e-03
      -5.32456441e-03 -3.46631296e-02 2.11677840e-03 4.14001793e-02
      3.40946158e-03 -1.51091833e-02 4.31160163e-03 8.35648643e-06
      3.67935351e-03 -9.69653353e-02 -5.92915015e-03 1.39661541e-03 0.
      7.43854605e-03 6.11625612e-03 7.70622678e-03 -1.09345105e-03
      4.01009209e-02 2.95960461e-03 1.90992886e-03 1.75710389e-04
      4.86218650e-03 -1.17816031e-03 5.85701273e-05 3.77546734e-04
      2.56353873e-03 5.28807053e-03 2.35826010e-03 -2.75739026e-03
      9.02223680e-03 9.31748934e-03 4.30336362e-03 -5.17157372e-03
      -8.59187078e-03 6.84014782e-02 -1.66501552e-01 1.03664408e-02
      2.63403077e-02 3.48773738e-03 -6.81612967e-03 -8.87408294e-03
      4.36849259e-02 1.13917412e-02 3.80842038e-03 -9.88982501e-04
      -3.14672739e-04 -9.33721568e-03 8.09489470e-03 -1.16159106e-02
      2.54258923e-02 -3.97005677e-01 1.38898730e-01 9.31009371e-03
      5.21403290e-02 -2.39836401e-03 8.20084169e-05 8.51486437e-03
      7.02193305e-02 -1.73445076e-01 2.68022940e-02 -2.82442383e-02
      4.19787467e-02 -7.32912719e-02 2.67825630e-02 -8.55231285e-02
      1.91850979e-02 -5.43228984e-02 -7.97719462e-04 -1.89233869e-02
      3.55326198e-02 -1.97266079e-02 -9.45842010e-04 7.21631646e-02
      4.07763533e-02 -2.43778806e-03 -4.64594876e-03 -6.51617593e-04
      6.72700582e-03 1.85373724e-02 -3.28068808e-03 1.56140462e-01
      1.22583002e-01 -3.47794667e-02 1.95247540e-03 -2.14484963e-03
      5.89564210e-03 -3.13287228e-03 -1.85403216e-04 -1.27379345e-02
      1.21604893e-02 -4.10772972e-02 2.76902737e-03 -2.34499611e-02
      1.17724808e-02 -1.33438753e-02 -1.35908490e-02 -1.02146670e-01
      2.14877531e-01 -6.32291585e-02 3.02349520e-03 -2.22490337e-02
      4.72132117e-03 -1.23052811e-02 -1.56835339e-03 -8.96375161e-03
      3.74775706e-03 -5.34885284e-03 0. 1.92232965e-03 7.82075047e-04
      -1.65155511e-02 -5.63054951e-03 -5.68326272e-04 -6.26423353e-05
      -5.76831624e-02 -2.33965740e-03 3.45444167e-03 -2.44135983e-04
      -1.04589406e-02 -3.39492015e-03 -6.40190346e-03 -3.60922585e-03
      2.77205050e-04 -8.51274468e-03 -2.62781121e-02 -3.48139176e-04
      -3.64309326e-02 1.31577021e-03 2.45492771e-01 6.71364963e-02
      -1.04400320e-02 -5.62154222e-03 5.15523786e-03 -4.13795980e-03
      -6.98120566e-04 0. -1.30241376e-03 2.07718389e-04 -2.90157623e-03
      -3.60610720e-04 -6.14333432e-04 -3.60610720e-04 9.15284734e-04
      -2.81584100e-04 4.60337661e-03 -3.96166416e-03 -1.25709623e-02
      -3.60610720e-04 -3.89277865e-03 -3.89238517e-03 -5.75566804e-03
      -3.60610720e-04 0. 0. -3.74901202e-03 -4.07280866e-03
      -1.77922030e-03 1.69521524e-03 -1.15791252e-02 0. -2.41763182e-02
      1.31582189e-02 1.49797546e-02 -4.17567883e-03 1.40160252e-03
      -2.36173742e-03 6.21147919e-03 -1.56553776e-03 -7.28232670e-04
      3.64252180e-03 -1.42132575e-02 -2.64978432e-03 -1.60880294e-03
      -6.98120566e-04 7.43959798e-03 -6.98120566e-04 -1.74515217e-03
      -5.68437018e-03 -1.33613879e-02 -9.35100019e-03 -3.72645259e-03
      3.65108810e-03 -5.30954276e-04 0. -3.37291742e-03 4.38436586e-03
      -1.18373282e-01 -3.63305444e-03 -1.41968038e-02 -4.21759021e-03
      4.58273105e-03 -5.93484100e-03 -3.46045904e-02 -9.72749107e-03
      -2.93944357e-03 1.76381636e-02 4.48220206e-04 6.73397481e-02
      1.96822360e-03 1.04627688e-03 5.31377271e-03 -1.11301214e-01
      7.33470917e-03 -7.47165468e-04 5.18627407e-04 1.02974502e-02
      1.34673819e-03 9.27059518e-05 3.28693120e-03 2.71238655e-01
      -2.85015278e-03 -6.61795610e-04 -1.88848970e-03 -1.95955671e-03 0.
      -3.27159325e-03 -2.24269694e-03 9.24021192e-03 1.27821590e-03
      5.39701106e-03 -5.15297800e-03 7.76291639e-03 -2.99224653e-03
      1.24014448e-02 -1.18032778e-02 1.22791074e-01 -1.20567204e-03
      1.63932219e-02 1.18484092e-03 6.06204802e-03 -1.97852333e-03 0.
      -2.64978432e-03 2.64370348e-03 0. -2.42744177e-03 0.
      3.87372653e-04 -3.12556233e-03 -1.74042420e-04 -3.95786576e-03
      1.23737869e-03 3.96218710e-03 6.84096292e-03 -5.30812482e-04
      -1.93179108e-03 0. 4.55089565e-03 0. -3.37780337e-03
      3.38626705e-04 8.43522325e-03 -2.25946773e-03 -1.87622651e-03
      -1.77032743e-02 -1.66787189e-02 -1.76854059e-02 6.36164239e-03
      -7.62420706e-04 4.65089604e-02 -3.85380350e-03 1.58501849e-01
      -5.50465542e-04 5.39655914e-04 4.03314643e-03 -2.23090183e-02
      -1.11051567e-03 -5.14030736e-03 1.92728103e-03 2.29860234e-04
      -2.87677092e-03 1.56820321e-03 1.92748010e-03 4.55218814e-02
      -1.08033582e-03 -3.60708172e-03 -6.16753334e-03 1.63219497e-03
      4.07815445e-04 -3.31223872e-03 -6.98120566e-04 3.39973299e-03
      -6.53514499e-03 -3.26284883e-03 -2.56259413e-03 -7.30392849e-03
      -2.41798509e-04 -9.03687719e-03 -1.15833478e-02 -5.55242086e-03
      3.25230062e-02 -2.29328289e-03 5.34737110e-03 7.08469152e-02
      5.04942099e-03 -1.33749703e-02 -1.14634640e-04 2.18696855e-02
      -1.48647139e-03 -2.43083853e-03 4.67798061e-04 -9.92542878e-03
      3.29492264e-03 -1.11840395e-02 1.28144026e-03 7.37004261e-03
      6.62137344e-02 1.27019798e-02 9.01762396e-03 1.85761284e-02
      1.88721642e-02 -1.57078560e-02 -2.78618507e-04 4.55316622e-03
      1.48653239e-01 2.71556824e-02 -9.02948901e-03 -1.21829864e-02
      -2.80676074e-02 -7.59015605e-02 -2.93251928e-02 7.82222450e-02
      -2.53957957e-01 -2.82045342e-02 -2.96598841e-02 -1.27983252e-02
      5.68922376e-03 -1.17439162e-02 -4.00114134e-02 -2.14649132e-04
      -7.45045692e-02 -1.76743269e-02 1.88996654e-03 -1.43189561e-02
      -3.06031182e-02 5.53398160e-03 -1.96650787e-03 -3.43940221e-02
      -1.01013836e-02 -2.53118132e-03 -4.04557632e-03 4.70296480e-03
      -7.28453556e-03 -2.27572653e-03 -8.51705763e-03 -6.75913179e-03
      7.52218626e-03 -3.97177646e-03 -1.17455656e-02 -5.92143321e-03
      -5.74033801e-03 -2.70727975e-03 -2.32465696e-02 1.17985576e-01
      -1.43808022e-01 -1.17786899e-02 3.30623705e-03 1.71981901e-02
      -1.94321293e-03 4.60193878e-05 -1.45667163e-03 1.74038927e-03
      1.07287383e-02 -9.44516039e-04 8.22456088e-03 -7.62073928e-03
      -9.19136405e-03 -5.71125466e-03 -2.48182192e-02 -1.65172834e-02
      1.04494952e-02 -1.25737302e-02 -1.44890109e-02 1.22867674e-02
      -1.94968714e-03 -4.46609454e-03 -4.34665149e-03 -2.27264041e-04
      -7.59862810e-02 7.16434140e-03 -1.11849587e-02 1.37127982e-02
      5.18021956e-02 -2.14319266e-02 -1.45542284e-03 -6.55225338e-03
      3.16808512e-03 -1.15190856e-02 -1.06732855e-02 -1.93819981e-02
      -1.84444722e-03 0. 8.70237709e-04 -7.37252319e-03 -5.98861976e-03
      -8.80449172e-03 -6.04722532e-04 -1.90852652e-03 -8.80839361e-04
      -2.50859623e-04 1.00658704e-02 -5.79267368e-03 -1.13194715e-03
      -2.27572653e-03 -7.49891042e-04 -3.41423228e-03 8.61702545e-04 0.
      -8.90399562e-04 -4.80920309e-03 -3.00171971e-03 5.43001042e-05
      -7.35955453e-03 -1.57565507e-03 -8.23353068e-04 1.32886853e-04
      -8.09003040e-03 -1.75410823e-03 -7.15920404e-02 -2.39615683e-02
      -2.02982966e-02 -1.43549060e-02 -1.34637614e-03 2.01972784e-03
      -1.01069640e-02 -9.65875573e-03 -2.14211666e-03 -8.36431747e-04
      1.59594673e-03 -5.39678382e-03 -2.25138217e-02 -2.14524567e-03
      -7.95538723e-03 -2.30286978e-02 7.01179057e-02 -1.66864637e-02
      -3.82108381e-03 1.79842953e-02 1.68690889e-03 -3.98669532e-03
      -1.57143567e-02 -1.67007912e-02 4.93480191e-02 -2.11934396e-03
      -8.09655245e-03 -1.56073831e-02 6.48620306e-03 -1.13360938e-02
      6.13391586e-02 -7.29914457e-02 -2.15047039e-02 -1.64994877e-02
      -1.71112865e-02 -1.04244478e-01 -1.79468968e-03 -1.22463796e-02
      -1.76946614e-02 -5.14943227e-02 -1.18568093e-02 -1.69208739e-02
      6.99219061e-03 -1.81765947e-02 -3.14545594e-02 2.75515555e-03
      -1.38804934e-03 -1.47485599e-01 -1.43069383e-02 -3.82618071e-03
      -2.50859623e-04 -5.56577696e-03 3.90446163e-04 -2.50859623e-04
      -2.77022901e-03 -2.44728825e-03 -2.14155857e-02 -7.01611571e-04
      -1.51848095e-03 1.20157667e-03 -1.69442352e-02 -1.15432870e-02
      1.20914001e-02 8.07858072e-03 -9.19418409e-03 -6.51078159e-03
      -1.17015066e-02 -3.88600677e-03 0. -2.07981584e-03 -1.56363635e-03
      -1.35540933e-04 -2.41596857e-03 -9.44516039e-04 -2.27572653e-03
      -3.12010688e-03 -2.28960766e-03 -2.04642047e-03 -2.50859623e-04
      6.99784234e-03 -1.15796980e-02 1.27968909e-02 0. 1.98831987e-02
      -2.50859623e-04 -5.63557958e-04 2.56980013e-04 -4.93676541e-03
      -1.26697058e-02 -5.68558648e-03 1.61824835e-04 -1.04551774e-03
      4.04022681e-03 -2.06917431e-02 -1.96190197e-02 -2.33376250e-02
      6.59099314e-03 -8.51447135e-02 -1.87173598e-02 2.95747984e-02
      -3.68505134e-03 -3.02518927e-03 -5.55206649e-03 -6.70966133e-02
      -1.54931890e-02 -1.22121871e-02 -4.71995911e-03 -1.51518388e-02
      1.31242145e-02 -4.87169105e-04 3.37018166e-03 2.24183537e-02
      -6.58102287e-03 2.87870923e-03 -5.48682828e-03 -3.18259560e-02
      -5.54045802e-03 -3.27485544e-03 -9.44516039e-04 -8.26089084e-03
      -1.25660934e-02 4.73172404e-03 -1.02221884e-03 -1.81863140e-02
      -1.73537666e-03 -7.49502843e-03 -1.68621931e-02 -1.43819362e-01
      -1.59788635e-02 -1.05595604e-01 -3.17292027e-02 1.92742258e-01
      6.46967534e-03 -1.18007818e-02 -4.18649055e-03 -1.64523087e-02
      -6.59324112e-04 8.60151777e-04 -7.86054472e-04 -1.72110833e-02
      -1.99499843e-03 9.09438636e-03 -6.82890182e-03 -6.89772815e-02
      1.43041447e-01 7.16918090e-04 -2.10470371e-02 5.01094311e-02
      -3.31227761e-03 -1.14344796e-02 -1.61411837e-02 -1.07938312e-01
      -8.26596096e-02 -1.58862881e-02 -6.46598497e-03 -3.85094732e-02
      -3.45977843e-02 -6.92422464e-02 3.39068542e-03 -8.82785320e-02
      -6.34471476e-02 -3.68363708e-02 2.58351658e-02 -2.30532214e-02
      1.10121090e-02 -4.72976221e-03 8.23147222e-03 -1.83155872e-02
      -1.15313129e-02 -1.04647391e-02 -1.14535727e-02 -8.91314074e-03
      7.60420877e-03 -2.61889072e-03 3.68173383e-02 1.76284909e-01
      -4.84642992e-03 -2.84584565e-03 -4.66694497e-03 -3.10470373e-03
      -1.84412824e-03 1.29290725e-04 -1.27489306e-03 -3.60598875e-04
      -3.35623361e-02 2.63720076e-03 4.83846263e-04 -2.39510369e-03
      -1.58787072e-02 -1.11069123e-03 7.68650994e-02 6.46202788e-02
      1.38613693e-02 -4.30381764e-03 1.21634062e-02 2.55091139e-03
      3.74212768e-03 3.68155102e-04 -2.19669007e-03 1.40618552e-02
      -8.94935511e-05 -2.17660866e-03 3.34794936e-03 -2.37007136e-03
      1.32781779e-02 2.94524070e-04 2.58250075e-05 -1.46128039e-03
      -3.08439564e-02 -1.66434678e-03 6.63441373e-04 -3.92407505e-03
      -5.58322249e-03 -1.54340945e-04 -8.12758284e-04 4.80926037e-03
      -3.44931297e-02 6.06767088e-03 4.15033937e-05 -1.33300755e-05
      -4.30357121e-02 2.20697047e-03 3.42356488e-02 3.69772539e-02
      9.67683736e-04 -4.93972655e-03 -1.94111676e-03 4.33349924e-04
      -6.22578300e-05 -2.51882570e-03 -6.34173118e-03 -4.88151703e-03
      -4.89510130e-03 -2.90484098e-03 4.39702242e-04 -2.19320669e-03
      -1.85741496e-03 -4.45723953e-03 5.59093198e-04 -1.65198352e-02
      4.16601251e-04 -8.79950880e-04 -2.46679131e-03 -1.49306143e-04 0.
      0. 0. 2.87963473e-03 4.10399698e-05 -7.28232495e-04
      -1.30249129e-03 1.74541929e-05 -9.64237843e-03 1.00129901e-03
      -1.35414395e-03 -6.69142511e-03 1.12818740e-02 2.07281043e-03
      2.82632513e-03 -3.93925374e-03 -7.21055456e-03 -1.43739628e-03
      3.98304779e-03 9.63556767e-03 1.93050727e-02 -4.35578683e-03
      1.01953326e-03 -5.29150665e-03 1.32113160e-03 0. 8.73281807e-03
      -5.33926254e-03 -7.88045756e-04 -2.13006441e-03 2.60209269e-03
      5.29112760e-03 2.15616589e-03 -1.26695624e-04 2.56287307e-03
      5.10756345e-03 -1.08730622e-01 -7.96965323e-03 -1.44752208e-03
      -5.85885113e-03 -7.96132460e-02 2.25773733e-03 -4.35057767e-02
      -5.12339324e-02 -6.71238005e-02 -1.05632301e-02 -2.23586708e-03
      -1.16164740e-02 -1.32693248e-02 2.23381841e-03 -3.18446122e-02
      -2.43191093e-01 1.78197250e-02 -6.20684028e-03 1.06262811e-03
      -1.12419669e-02 -8.97501502e-03 -2.57534697e-03 -1.19460942e-02
      2.00277239e-01 -1.04790449e-03 -9.50182730e-04 2.34208931e-03
      5.06132608e-03 -1.33930682e-03 -1.52542850e-03 -1.73683069e-03
      -1.91109329e-02 6.67984551e-03 4.56679799e-03 0. 2.71046243e-04
      -2.47138389e-03 4.52879525e-04 6.15716726e-03 9.90081057e-02
      -7.63512682e-04 -5.83621766e-03 6.47757333e-05 -1.61210936e-03
      -1.06617133e-03 7.36310176e-05 -3.70203704e-03 -6.10857178e-03
      -1.84353819e-04 -5.07355551e-04 0. 6.42669795e-04 9.77112446e-04
      -8.88113864e-04 4.29927342e-04 -1.14630414e-02 1.83680991e-03
      1.33693480e-04 0. 7.30759604e-03 0. -3.60794156e-03
      -4.72012116e-03 -1.79559775e-02 -2.12558806e-02 8.23958020e-04
      9.02735977e-04 8.95790663e-03 -1.77878712e-03 -1.39155728e-03
      -4.97707631e-03 3.25739011e-02 -2.97842058e-03 -1.07179312e-02
      -3.19442013e-04 1.40741780e-01 8.94954253e-04 -2.88239773e-03
      4.86184424e-03 3.04018501e-02 -9.77076683e-03 -2.71013938e-03
      -1.86121644e-04 -9.48213879e-03 3.13907187e-03 -1.45035712e-02
      -1.04765547e-02 5.05110584e-02 -1.93972117e-03 9.81562407e-05
      2.57708569e-04 4.89202933e-03 0. 0. -7.29559979e-04
      -2.69165728e-03 -2.18167101e-04 -1.51298021e-03 5.19398367e-04
      1.74967467e-03 -3.68219742e-04 -6.57328172e-04 -2.11634743e-03
      9.04616807e-03 9.26521607e-03 6.87066652e-03 3.47572938e-03
      1.55356020e-01 1.02499744e-03 1.91200909e-03 -5.29383600e-04
      8.69941041e-02 5.85302105e-03 -4.28060535e-03 -1.68180722e-03
      -5.55345183e-03 5.85043163e-04 -1.02246133e-06 -6.37968676e-03
      -7.39853969e-03 -1.13818914e-01 3.31049524e-02 -6.31115050e-04
      -2.25904826e-02 -3.67534463e-03 -9.81244911e-03 2.63548479e-03
      -6.00535423e-02 1.07481750e-02 4.66227382e-02 1.10276286e-02
      2.21608952e-02 -4.64933030e-02 2.69021522e-02 -2.57248469e-02
      -7.35524530e-03 -1.34596331e-02 -2.75906525e-03 2.44306261e-03
      -1.84137002e-02 -2.48168651e-02 -8.09657201e-03 -4.19727573e-03
      -3.55105996e-02 -4.74176891e-02 -1.17356675e-02 -1.19043346e-02
      -3.94699723e-03 -7.46426545e-03 -1.37314294e-02 1.13279961e-01
      -2.11070761e-01 1.10299205e-02 -1.22413889e-03 6.48857933e-03
      2.26172316e-03 -1.08464621e-02 -1.40979665e-03 6.61083832e-05
      -2.56373757e-03 5.11182752e-03 1.14247892e-02 3.14930454e-03
      1.75307505e-02 2.85354406e-02 2.71154358e-03 -1.02062300e-01
      1.03552662e-01 2.38156002e-02 -5.73400967e-03 -1.67527306e-03
      -9.49049089e-03 -4.21515340e-03 -4.09860443e-03 5.48276352e-03
      -1.20681748e-02 -4.45964659e-04 -1.95974630e-04 2.91652232e-03
      2.52827536e-03 1.91123353e-03 1.50032062e-03 3.44324566e-04
      -4.64081811e-03 5.77107491e-03 -2.05988949e-03 -3.78624350e-03
      4.97804349e-03 -8.54300056e-03 0. -3.11244046e-03 1.10852148e-03
      5.25446683e-02 2.14752043e-03 -6.27806876e-03 5.12601761e-03
      3.97415273e-02 3.47390398e-03 1.51892439e-01 8.00150186e-02
      -1.02471467e-02 -5.10993600e-03 -2.42836145e-03 1.30686327e-03
      2.77822092e-03 4.44325087e-05 -1.03578065e-02 -1.81086606e-03
      -5.08696912e-03 -2.05881428e-03 4.44325087e-05 5.17118955e-04
      -6.50065020e-04 0. -3.87163274e-03 1.00564118e-02 -1.07234782e-02
      -3.89483728e-04 -1.56133878e-03 0. -9.52670758e-04 -7.12263572e-04
      -1.46849186e-03 2.48646666e-03 -8.86261463e-04 0. -2.81959330e-03
      -3.44439340e-03 -1.40204339e-03 0. 8.82628316e-04 -1.11761810e-02
      5.67617714e-02 8.89631454e-03 -9.38148424e-03 -1.72497227e-03
      1.21972512e-03 0. 6.77359663e-03 2.66998005e-03 2.61132815e-03
      -7.68133730e-04 -1.86329137e-03 -9.61130834e-04 -4.79274057e-03
      -1.40979665e-03 -5.65924076e-03 1.50885237e-02 1.13367615e-03
      -3.78574547e-03 1.48892286e-03 -6.84552081e-03 -8.35524499e-03
      -1.20921386e-03 -9.18996404e-04 1.05135515e-02 -1.19328082e-01
      4.01682919e-03 -2.06959937e-02 -2.82736565e-03 -1.75678134e-02
      -6.16595149e-03 -1.17582642e-02 -9.91971698e-03 -8.26406665e-03
      -9.77180433e-03 2.49028974e-03 -4.60009761e-02 3.33991880e-03
      -5.55967446e-03 -4.68935911e-03 1.25960365e-01 -1.06490022e-02
      -2.46366696e-03 7.96017761e-04 5.67685533e-03 1.78416003e-03
      -3.60792433e-03 1.64643175e-03 1.81451470e-01 -4.73876717e-03
      8.76474939e-03 0. -5.20897843e-03 -2.05881428e-03 -9.29206843e-04
      1.24343927e-03 3.76638462e-04 1.22123351e-03 1.36917771e-03
      -7.56228284e-04 -2.61237216e-03 -9.77223041e-04 -2.28440593e-04
      -1.18308868e-02 -1.50767877e-03 7.28427619e-03 5.84467174e-03
      5.83830057e-04 -1.40862018e-02 -1.40979665e-03 5.88186434e-04
      -6.88799715e-04 3.87888897e-04 0. -8.45093338e-04 2.80304858e-03
      -1.48646429e-03 1.76038058e-03 -1.18763407e-03 -2.09859642e-03
      -1.73917320e-02 -6.89423061e-04 -2.25321180e-03 0. 1.85548642e-03
      -2.18820781e-03 -1.38350565e-03 -2.22827046e-04 6.22920110e-04
      2.19836063e-03 -1.10958365e-03 -2.96107115e-04 -6.92803785e-03
      4.91118059e-03 -6.38325745e-03 -1.22550903e-02 -2.16741301e-02
      -1.51396915e-02 1.83138857e-03 -3.14008258e-03 2.87650414e-02
      1.51658198e-03 -3.45858920e-04 1.79768354e-03 -5.80891073e-02
      -2.31245183e-03 -1.01800822e-03 0. 8.69550877e-06 -6.00930676e-03
      5.57127828e-03 -1.27361091e-02 1.00186402e-02 -2.04760442e-03
      -5.71670057e-03 -7.41260941e-04 5.30980807e-03 -7.12263572e-04
      2.20560958e-03 8.68669711e-04 2.90364656e-03 1.81835447e-03
      -7.28209037e-03 1.32269168e-03 -3.61919543e-03 1.83395005e-03
      -6.37490908e-03 9.70593840e-03 -1.86590739e-02 5.02353385e-02
      -1.34200647e-01 5.40266512e-03 1.39043154e-02 1.04336906e-02
      -3.76490271e-03 -8.29348620e-03 2.43298337e-02 -1.28951669e-03
      3.87838343e-03 0. -6.46682689e-03 7.40524090e-04 -7.36112567e-03
      1.07612954e-02 -2.33523846e-02 8.99451897e-02 7.91838020e-03
      2.64895352e-04 -9.83257126e-03 -1.36513310e-02 7.30484538e-03
      -7.32978759e-03 -2.07452066e-02 1.04273796e-01 -1.39392680e-02
      2.03030184e-03 -4.08587558e-03 2.05045734e-02 -7.37596070e-03
      -3.91903054e-03 4.89512756e-02 -1.52878419e-01 -2.81839557e-02
      -9.43489298e-02 -1.63840409e-02 -2.30553858e-02 5.62007888e-04
      2.69152746e-02 4.68151085e-02 2.79562385e-03 -2.70886440e-03
      -8.79562087e-03 -2.37397160e-02 3.76431085e-02 -7.65692117e-03
      -9.70197096e-03 1.65260181e-01 -2.61562113e-02 -1.23129925e-02
      -1.28587652e-02 -9.95881483e-03 1.04328478e-03 -6.15905924e-03
      -3.42235365e-03 4.02763952e-03 -5.76075278e-02 -2.85138492e-03
      -4.02720533e-02 -1.68836191e-02 -2.53962609e-03 -9.92195122e-03
      -1.64495200e-01 1.17782857e-02 -7.32004941e-02 -1.22075053e-02
      7.49832764e-03 -1.01801865e-02 -1.54025424e-02 -2.51929020e-03
      -2.56755054e-02 -5.50739281e-03 -1.93518831e-03 -1.28516660e-03
      -6.08983031e-03 -5.28823258e-03 -2.37468854e-02 -1.43935508e-03
      -9.97347105e-03 -1.12000909e-02 9.91583243e-03 -1.89782621e-03
      -1.08240983e-02 3.42010800e-03 -9.80351586e-03 -2.18228227e-03
      -2.34657936e-02 2.48944247e-03 -7.35666826e-02 -2.79073860e-03
      5.07956778e-04 4.90048027e-04 -5.86480238e-02 -3.83853912e-03
      5.33925444e-02 8.99767503e-02 7.84608629e-03 -1.12116511e-03
      -8.02910235e-03 4.11065808e-03 1.34101056e-03 -8.02838651e-04
      2.39564758e-03 -4.96848579e-03 -7.43403565e-03 2.30806530e-03
      -4.33917623e-03 -1.03871780e-03 1.05238101e-02 -8.61992128e-03
      -4.80372040e-03 -1.47717567e-02 -6.76820846e-03 0. -2.94088502e-03
      1.64377759e-03 0. 7.82075047e-04 -1.28176471e-03 -2.40407142e-04
      -3.32573312e-03 5.40675316e-03 4.58274828e-03 -1.06111728e-03
      -4.20900201e-03 0. -1.76500641e-02 -2.64776405e-03 -1.47328470e-02
      -7.81650539e-04 -9.19170305e-03 -1.15633076e-02 -3.32658575e-03
      -3.07832588e-03 -1.52415875e-03 -4.15177550e-03 5.04537718e-03
      2.63661903e-04 0. 0. -1.30270058e-02 -1.65020383e-03
      -1.10357711e-02 4.56625188e-04 1.11351805e-02 -3.85995489e-03
      1.57648195e-02 4.85340087e-03 -4.03982151e-04 -3.24265147e-03
      9.97665990e-03 5.12125262e-04 -9.54039115e-03 6.55667204e-03
      -1.36131775e-02 -5.07199112e-03 7.99895450e-02 -1.78159755e-02
      -3.80484462e-02 -5.86864464e-02 -7.96516687e-02 -5.66668296e-03
      -3.18700122e-03 -4.19963077e-02 2.87920609e-03 -1.89685114e-02
      3.09815444e-03 -2.63418127e-02 2.82900240e-02 1.82400958e-03
      -1.04324578e-03 1.43749015e-02 1.40694259e-02 -3.06284111e-02
      -5.78122772e-03 1.04163021e-01 -8.80915113e-03 -1.62642226e-02
      1.45661950e-04 -8.76514893e-03 -5.91708208e-03 -2.40407142e-04
      3.25037562e-03 2.51611834e-03 -9.05703194e-03 1.34492770e-03
      8.61702545e-04 -3.82738281e-03 -2.23150174e-03 -2.39321264e-04
      1.65067485e-03 6.19484186e-02 1.78806344e-03 -5.06736280e-04
      -2.67455657e-03 -1.51316468e-02 -8.41567635e-06 -4.93273372e-04
      -6.11879444e-03 -1.33124962e-02 -4.60222643e-03 -2.48279120e-03 0.
      -2.40407142e-04 2.54071434e-04 3.22116795e-03 -1.40979665e-03
      -8.53519235e-03 -6.09666388e-03 -1.94131751e-02 0. 5.87796746e-03
      2.26101186e-03 -6.54638233e-03 -2.31150910e-03 -1.10442583e-02
      2.12820465e-04 -7.51433149e-03 -2.99057807e-03 -3.91074549e-03
      6.68668468e-03 -1.23887006e-02 -9.60090756e-03 -8.69597215e-03
      -2.14335397e-02 5.71953245e-02 -1.38024846e-02 4.81658056e-02
      5.03611425e-03 -1.03889778e-02 -1.84674968e-03 -9.92230102e-02
      -2.14675479e-02 -3.71909025e-03 -5.64309908e-03 -2.18828302e-02
      -7.18638953e-03 -1.32852308e-02 7.03963544e-03 -4.73783463e-02
      4.29956708e-03 4.39668773e-03 -4.09807079e-03 9.45033878e-03
      -8.02838651e-04 -4.99501545e-03 2.91405478e-03 -7.72123877e-03
      9.04302672e-03 1.14432024e-02 6.13591837e-05 -1.21453218e-02
      5.83672337e-03 2.21242383e-02 5.58646163e-03 -1.40990600e-01
      -2.31654290e-02 1.60881639e-01 -1.16357133e-02 1.49293438e-01
      -8.44100118e-03 -5.41767478e-03 2.84139533e-03 1.52012752e-03
      5.77013893e-03 2.36883722e-02 -7.06539024e-03 1.43100098e-02
      5.32400422e-03 -9.73694585e-03 -9.69809247e-04 -1.22565895e-01
      4.00417522e-02 -4.24556918e-02 -1.14002852e-02 1.43608069e-02
      -2.41085384e-02 3.66345327e-03 -1.16763618e-02 -1.09100133e-01
      7.74113536e-02 7.21194223e-02 -4.43558907e-03 4.09231568e-03
      -7.85939917e-02 -8.62653702e-02 -4.18291502e-02 -9.47399810e-02</_></support_vectors>
  <decision_functions>
    <_>
      <sv_count>1</sv_count>
      <rho>-1.6053587356523942e+00</rho>
      <alpha>
        1.</alpha>
      <index>
        0</index></_></decision_functions></my_svm>
</opencv_storage>
